
\data\
ngram 1=8721
ngram 2=56482

\1-grams:
-3.831595	!	-99
-5.007686	#	-99
-5.308716	$	-99
-4.609746	'	-99
-5.308716	''	-99
-5.308716	'fastest	-99
-5.308716	'll	-99
-4.831594	'm	-99
-4.308716	're	-99
-2.855397	's	-99
-5.308716	's-eye-view	-99
-1.937094	,	-99
-5.308716	-	-99
-5.308716	-a	-99
-1.17636	.	-99
-5.308716	..	-99
-4.831594	...	-99
-5.308716	..am	-99
-5.308716	.making	-99
-5.308716	.ready	-99
-4.831594	1	-99
-5.308716	10,000	-99
-5.007686	100	-99
-5.308716	100m	-99
-5.308716	104	-99
-5.308716	10lb	-99
-5.308716	11	-99
-5.308716	12k	-99
-5.007686	15	-99
-5.308716	17	-99
-5.308716	18	-99
-5.308716	181	-99
-5.007686	19	-99
-5.308716	1950s	-99
-4.706656	2	-99
-4.831594	20	-99
-5.308716	20th	-99
-5.308716	23	-99
-5.007686	25	-99
-5.308716	281	-99
-4.706656	3	-99
-5.308716	3-wheeler	-99
-5.308716	300	-99
-5.308716	3rd	-99
-4.831594	4	-99
-5.308716	4th	-99
-4.831594	5	-99
-5.308716	5k	-99
-5.308716	6	-99
-5.308716	661	-99
-4.706656	8	-99
-5.007686	80s	-99
-5.007686	84	-99
-5.308716	9	-99
-5.308716	93	-99
-5.308716	:	-99
-4.229535	;	-99
-1.175177	</s>
-99	<s>	-99
-4.831594	?	-99
-5.308716	]	-99
-3.740514	``	-99
-1.029597	a	-99
-5.308716	a-frame	-99
-5.007686	aa	-99
-5.308716	abacus	-99
-5.007686	abandon	-99
-4.831594	abandoned	-99
-5.308716	abandons	-99
-5.308716	abba	-99
-5.308716	abducted	-99
-5.308716	abilities	-99
-4.706656	ability	-99
-5.308716	able	-99
-5.308716	ableskeivers	-99
-5.308716	aboard	-99
-4.831594	abominable	-99
-5.308716	aboriginal	-99
-3.00122	about	-99
-3.502536	above	-99
-5.308716	abseiling	-99
-5.308716	absolutely	-99
-5.308716	absorbs	-99
-5.308716	abut	-99
-5.308716	ac	-99
-5.308716	accelerates	-99
-5.308716	acceleration	-99
-5.007686	accept	-99
-4.706656	accident	-99
-5.308716	accidentally	-99
-5.308716	accolades	-99
-5.308716	accompanied	-99
-5.308716	accompanies	-99
-5.308716	accomplish	-99
-5.308716	accomplished	-99
-3.986497	accomplishment	-99
-4.706656	accomplishments	-99
-5.007686	according	-99
-4.706656	accordion	-99
-5.308716	accuracy	-99
-5.308716	accused	-99
-5.007686	ache	-99
-4.706656	achieve	-99
-4.609746	achievement	-99
-5.308716	achievements	-99
-5.308716	achieves	-99
-5.308716	achive	-99
-5.308716	acorns	-99
-5.308716	acreage	-99
-5.308716	acrobat	-99
-5.007686	acrobatic	-99
-5.007686	acrobatics	-99
-3.07067	across	-99
-5.308716	acrouss	-99
-4.354474	act	-99
-4.354474	acting	-99
-4.308716	action	-99
-5.007686	active	-99
-5.007686	activities	-99
-4.706656	activity	-99
-5.007686	actor	-99
-5.308716	actors	-99
-5.007686	actress	-99
-4.831594	acts	-99
-4.706656	actually	-99
-5.308716	adam	-99
-5.308716	add	-99
-5.308716	added	-99
-5.308716	adhd	-99
-5.308716	adjust	-99
-5.308716	adjustments	-99
-5.308716	admiration	-99
-4.609746	admire	-99
-4.706656	admires	-99
-4.267323	admiring	-99
-5.308716	adopt	-99
-5.007686	adopted	-99
-5.007686	adoption	-99
-5.007686	adorable	-99
-5.308716	adorably	-99
-5.007686	adoration	-99
-5.308716	adores	-99
-4.463618	adoring	-99
-5.007686	adoringly	-99
-4.831594	adorned	-99
-5.007686	adrenaline	-99
-5.308716	ads	-99
-3.817354	adult	-99
-3.655504	adults	-99
-5.007686	advantage	-99
-5.308716	adventerous	-99
-3.645958	adventure	-99
-4.831594	adventures	-99
-4.463618	adventurous	-99
-5.308716	advertise	-99
-4.530565	advertisement	-99
-5.007686	advertising	-99
-5.007686	advice	-99
-5.308716	advocates	-99
-5.308716	aerial	-99
-5.308716	aerobatic	-99
-5.007686	aerobics	-99
-5.308716	aeroplane	-99
-4.194773	affection	-99
-5.308716	affectionate	-99
-5.308716	affectionately	-99
-5.308716	affections	-99
-5.308716	afghan	-99
-5.007686	afloat	-99
-4.354474	afraid	-99
-4.463618	african	-99
-5.007686	african-american	-99
-5.308716	african-americans	-99
-5.308716	africans	-99
-2.930318	after	-99
-4.405626	afternoon	-99
-5.308716	afterwards	-99
-4.463618	again	-99
-5.007686	agains	-99
-3.482641	against	-99
-5.308716	agap	-99
-4.530565	aged	-99
-5.308716	agency	-99
-5.007686	ages	-99
-5.308716	agile	-99
-4.405626	agility	-99
-5.308716	aging	-99
-4.104596	ahead	-99
-5.007686	aid	-99
-5.308716	aided	-99
-5.308716	aig	-99
-5.007686	aim	-99
-5.308716	aimed	-99
-4.530565	aiming	-99
-5.308716	aimlessly	-99
-5.007686	aims	-99
-2.792842	air	-99
-5.308716	air-conditioning	-99
-3.946988	airborne	-99
-5.308716	aircraft	-99
-4.405626	airplane	-99
-4.463618	airport	-99
-5.308716	airpush	-99
-5.308716	airship	-99
-5.308716	aisan	-99
-5.308716	aisle	-99
-5.308716	akin	-99
-5.308716	alaska	-99
-5.007686	album	-99
-5.308716	alcatraz	-99
-5.308716	alcohol	-99
-5.308716	ale	-99
-5.007686	alert	-99
-5.308716	alertly	-99
-4.405626	alien	-99
-3.986497	aliens	-99
-5.308716	aligators	-99
-5.007686	alike	-99
-4.308716	alive	-99
-3.291682	all	-99
-5.308716	all-white	-99
-4.609746	alley	-99
-5.308716	alleyway	-99
-4.706656	alligator	-99
-5.308716	alligators	-99
-5.308716	allow	-99
-5.308716	allowed	-99
-5.308716	allowing	-99
-5.308716	allows	-99
-4.463618	almost	-99
-5.308716	almost-dried	-99
-5.308716	aloft	-99
-3.695932	alone	-99
-3.088608	along	-99
-4.308716	alongside	-99
-5.308716	alphabets	-99
-5.007686	already	-99
-5.308716	alright	-99
-4.831594	also	-99
-4.530565	although	-99
-5.007686	always	-99
-4.831594	am	-99
-5.007686	amazed	-99
-4.831594	amazement	-99
-4.609746	amazing	-99
-5.308716	ambling	-99
-5.007686	ambulance	-99
-5.308716	amd	-99
-5.007686	america	-99
-3.910776	american	-99
-5.308716	amicably	-99
-5.308716	amid	-99
-4.463618	amidst	-99
-5.007686	amish	-99
-4.078267	among	-99
-4.609746	amongst	-99
-5.308716	amorous	-99
-5.007686	amount	-99
-5.308716	amour	-99
-5.308716	amplified	-99
-4.609746	amuse	-99
-4.354474	amused	-99
-5.308716	amuseing	-99
-3.966293	amusement	-99
-5.308716	amuses	-99
-5.308716	amusment	-99
-2.414954	an	-99
-5.308716	ancesters	-99
-5.007686	ancestors	-99
-4.530565	ancient	-99
-1.854481	and	-99
-5.308716	andy	-99
-5.007686	angel	-99
-4.530565	angels	-99
-4.831594	anger	-99
-5.308716	angled	-99
-5.308716	angles	-99
-5.308716	angrily	-99
-4.405626	angry	-99
-3.803566	animal	-99
-3.986497	animals	-99
-5.308716	anime	-99
-5.007686	ankle	-99
-5.308716	ankle-deep	-99
-5.308716	ankles	-99
-4.354474	anniversary	-99
-5.308716	announcing	-99
-5.308716	annoy	-99
-5.007686	annoyed	-99
-5.308716	annoys	-99
-5.308716	annually	-99
-5.308716	anonymous	-99
-2.943228	another	-99
-5.308716	ans	-99
-5.308716	answer	-99
-5.308716	answering	-99
-5.007686	ant	-99
-5.308716	antarctic	-99
-5.007686	antelope	-99
-5.308716	antenna	-99
-5.308716	anther	-99
-5.308716	anti-tax	-99
-5.308716	anticipates	-99
-4.463618	anticipating	-99
-4.229535	anticipation	-99
-5.308716	antiquated	-99
-5.308716	antique	-99
-5.308716	antoher	-99
-4.405626	ants	-99
-4.831594	anxious	-99
-4.530565	anxiously	-99
-4.354474	any	-99
-4.706656	anyone	-99
-4.831594	anything	-99
-4.609746	apart	-99
-5.007686	apartments	-99
-5.007686	apex	-99
-5.308716	apologies	-99
-5.308716	apparantly	-99
-5.007686	apparatus	-99
-5.308716	appealing	-99
-4.706656	appear	-99
-5.308716	appearance	-99
-4.706656	appearing	-99
-5.308716	appearl	-99
-4.831594	appears	-99
-5.308716	applauds	-99
-5.308716	applause	-99
-4.706656	apple	-99
-4.706656	apples	-99
-5.007686	applies	-99
-5.007686	appreciate	-99
-5.308716	appreciation	-99
-5.308716	approach	-99
-5.308716	approached	-99
-4.463618	approaches	-99
-4.354474	approaching	-99
-5.007686	approval	-99
-4.405626	apron	-99
-5.007686	aproned	-99
-5.308716	aqua	-99
-5.308716	aqua-colored	-99
-5.308716	aquagames	-99
-5.308716	aquarium	-99
-5.308716	arc	-99
-4.706656	arcade	-99
-4.706656	arch	-99
-5.308716	archaic	-99
-5.007686	arched	-99
-5.308716	arches	-99
-5.007686	architectural	-99
-5.308716	archway	-99
-5.308716	archways	-99
-2.209381	are	-99
-3.354473	area	-99
-5.308716	areas	-99
-4.831594	arena	-99
-5.007686	arguing	-99
-5.308716	argument	-99
-5.308716	ariel	-99
-5.308716	arithmetic	-99
-5.308716	arizona	-99
-3.685467	arm	-99
-5.308716	arm-wrestling	-99
-5.308716	armbands	-99
-5.308716	armenian	-99
-5.308716	armoire	-99
-5.308716	armor	-99
-4.831594	armpits	-99
-3.400231	arms	-99
-5.308716	armstand	-99
-5.308716	armstrong	-99
-4.609746	army	-99
-2.950781	around	-99
-5.308716	arouse	-99
-5.308716	arrangement	-99
-5.007686	arrival	-99
-4.267323	arrive	-99
-5.308716	arrived	-99
-5.308716	arrives	-99
-5.007686	arriving	-99
-5.308716	arrogant	-99
-5.007686	arrow	-99
-4.132625	art	-99
-5.308716	artfully	-99
-5.308716	articles	-99
-5.007686	artifacts	-99
-5.007686	artificial	-99
-4.405626	artist	-99
-5.007686	artistic	-99
-4.706656	artists	-99
-4.308716	arts	-99
-5.308716	artwork	-99
-2.649751	as	-99
-5.308716	ascend	-99
-4.831594	ascending	-99
-5.308716	ascends	-99
-5.308716	ashy	-99
-3.476207	asian	-99
-5.308716	aside	-99
-5.308716	ask	-99
-4.831594	asked	-99
-4.308716	asking	-99
-5.007686	asks	-99
-4.463618	asleep	-99
-5.308716	asperations	-99
-4.706656	asphalt	-99
-5.007686	aspirations	-99
-5.007686	aspiring	-99
-5.308716	assailant	-99
-5.308716	assassins	-99
-5.308716	assemble	-99
-5.308716	assembling	-99
-5.308716	assignment	-99
-5.308716	assist	-99
-4.706656	assistance	-99
-5.308716	assisting	-99
-5.308716	assists	-99
-5.308716	assure	-99
-5.308716	asteroid	-99
-5.308716	astonishing	-99
-5.308716	astonishingly	-99
-5.308716	astonishment	-99
-5.308716	astride	-99
-5.308716	astro	-99
-5.007686	astronauts	-99
-2.275694	at	-99
-4.308716	ate	-99
-5.308716	ater	-99
-5.308716	athe	-99
-5.308716	athlet	-99
-4.609746	athlete	-99
-4.706656	athletes	-99
-4.354474	athletic	-99
-5.308716	atlantic	-99
-5.308716	atlantis	-99
-5.308716	atm	-99
-5.007686	atmosphere	-99
-4.354474	atop	-99
-5.308716	atrium	-99
-4.354474	attached	-99
-5.308716	attaches	-99
-4.405626	attack	-99
-4.831594	attacked	-99
-4.831594	attacking	-99
-5.308716	attacks	-99
-5.308716	attain	-99
-5.308716	attaining	-99
-4.007686	attempt	-99
-5.308716	attempted	-99
-3.291682	attempting	-99
-4.053443	attempts	-99
-5.308716	attend	-99
-4.609746	attending	-99
-4.029963	attention	-99
-5.308716	attentive	-99
-4.609746	attire	-99
-5.308716	attitude	-99
-3.986497	attract	-99
-5.308716	attracted	-99
-5.007686	attracting	-99
-5.007686	attraction	-99
-4.706656	attractive	-99
-5.308716	attractively	-99
-4.831594	attracts	-99
-5.308716	attributes	-99
-5.308716	attributing	-99
-4.194773	atv	-99
-5.308716	audiance	-99
-3.893743	audience	-99
-5.007686	audiences	-99
-5.007686	audition	-99
-5.007686	auditorium	-99
-5.308716	aurora	-99
-4.831594	australian	-99
-5.308716	authorities	-99
-5.007686	autograph	-99
-5.308716	autographs	-99
-5.007686	automobiles	-99
-4.405626	autumn	-99
-4.609746	avalanche	-99
-5.308716	avenge	-99
-5.308716	avenue	-99
-5.308716	average	-99
-5.308716	averting	-99
-3.695932	avoid	-99
-5.308716	avoiders	-99
-4.530565	avoiding	-99
-5.007686	avoids	-99
-4.706656	await	-99
-5.308716	awaited	-99
-4.078267	awaiting	-99
-4.463618	awaits	-99
-4.706656	award	-99
-4.706656	awards	-99
-5.308716	aware	-99
-5.308716	awareness	-99
-3.349674	away	-99
-4.267323	awe	-99
-4.706656	awesome	-99
-5.308716	awhile	-99
-5.007686	awkward	-99
-5.007686	awkwardly	-99
-5.308716	awning	-99
-5.308716	awoman	-99
-5.308716	ax	-99
-5.308716	axe	-99
-5.308716	babes	-99
-4.609746	babies	-99
-3.141399	baby	-99
-5.308716	babysitter	-99
-3.147348	back	-99
-5.308716	back-to-back	-99
-5.308716	backbend	-99
-5.308716	backbones	-99
-4.463618	backdrop	-99
-3.364233	background	-99
-5.308716	backhand	-99
-5.007686	backlit	-99
-3.803566	backpack	-99
-4.831594	backpacker	-99
-5.308716	backpackers	-99
-5.007686	backpacking	-99
-4.530565	backpacks	-99
-4.530565	backs	-99
-5.308716	backseat	-99
-5.308716	backside	-99
-5.308716	backsides	-99
-5.007686	backstage	-99
-5.308716	backstand	-99
-4.831594	backstroke	-99
-5.308716	backstrokes	-99
-5.007686	backward	-99
-4.132625	backwards	-99
-4.053443	backyard	-99
-4.706656	bacon	-99
-4.405626	bad	-99
-5.308716	badge	-99
-5.308716	badges	-99
-5.308716	badly	-99
-4.609746	badminton	-99
-3.740514	bag	-99
-5.308716	bagpipe	-99
-5.308716	bagpipers	-99
-4.831594	bagpipes	-99
-3.861558	bags	-99
-5.007686	baked	-99
-5.308716	baking	-99
-4.162588	balance	-99
-4.706656	balanced	-99
-4.229535	balances	-99
-4.267323	balancing	-99
-5.308716	balck	-99
-4.267323	balcony	-99
-4.132625	bald	-99
-5.007686	balding	-99
-5.308716	bale	-99
-5.308716	bales	-99
-2.529841	ball	-99
-5.308716	ball-shaped	-99
-5.308716	ballad	-99
-5.308716	ballads	-99
-4.706656	ballerina	-99
-4.706656	ballerinas	-99
-4.530565	ballet	-99
-5.007686	ballon	-99
-5.308716	ballons	-99
-4.132625	balloon	-99
-4.194773	balloons	-99
-5.308716	ballplayer	-99
-5.308716	ballroom	-99
-4.029963	balls	-99
-5.308716	balmy	-99
-5.007686	banana	-99
-4.609746	bananas	-99
-3.986497	band	-99
-4.609746	bandanna	-99
-5.308716	bandmates	-99
-5.308716	bang	-99
-5.308716	bangles	-99
-5.308716	bangs	-99
-5.308716	banishment	-99
-5.007686	banjo	-99
-4.405626	bank	-99
-4.609746	banner	-99
-5.308716	banners	-99
-5.308716	banning	-99
-3.803566	bar	-99
-5.308716	barack	-99
-5.308716	barb	-99
-5.007686	barbed	-99
-5.308716	barbeque	-99
-4.831594	barber	-99
-4.706656	bare	-99
-5.308716	bare-chested	-99
-5.308716	bareback	-99
-5.308716	barechested	-99
-5.308716	bared	-99
-4.078267	barefoot	-99
-5.007686	barefooted	-99
-5.007686	barely	-99
-5.308716	bares	-99
-5.308716	baring	-99
-5.308716	bark	-99
-4.132625	barking	-99
-4.308716	barks	-99
-4.609746	barn	-99
-4.463618	barrel	-99
-4.831594	barrels	-99
-4.831594	barren	-99
-5.007686	barricade	-99
-4.405626	barrier	-99
-5.007686	barriers	-99
-4.405626	bars	-99
-5.308716	bart	-99
-4.132625	base	-99
-3.354473	baseball	-99
-5.308716	baseman	-99
-5.007686	basement	-99
-5.308716	bask	-99
-4.162588	basket	-99
-3.248018	basketball	-99
-5.308716	basketballs	-99
-4.706656	baskets	-99
-4.706656	basking	-99
-5.007686	bass	-99
-3.861558	bat	-99
-4.029963	bath	-99
-5.007686	bathe	-99
-5.308716	bathed	-99
-3.861558	bathing	-99
-4.706656	bathrobe	-99
-4.530565	bathroom	-99
-4.609746	bathtub	-99
-5.308716	bathtube	-99
-4.609746	batman	-99
-5.007686	baton	-99
-5.308716	batons	-99
-5.007686	bats	-99
-4.609746	batter	-99
-5.308716	batteries	-99
-4.831594	batting	-99
-4.706656	battle	-99
-4.831594	battling	-99
-5.308716	bawl	-99
-5.007686	bay	-99
-5.007686	bcause	-99
-3.085999	be	-99
-2.765891	beach	-99
-5.308716	beached	-99
-5.308716	beachgoers	-99
-4.609746	beads	-99
-4.609746	beagle	-99
-5.308716	beaks	-99
-4.405626	beam	-99
-5.308716	beaming	-99
-5.308716	beams	-99
-5.308716	bean	-99
-4.194773	bear	-99
-3.966293	beard	-99
-4.267323	bearded	-99
-5.308716	bearer	-99
-4.609746	bearing	-99
-4.405626	bears	-99
-5.007686	beast	-99
-4.308716	beat	-99
-5.007686	beaten	-99
-4.609746	beating	-99
-5.308716	beatnik	-99
-5.308716	beauties	-99
-3.233169	beautiful	-99
-5.308716	beautifully	-99
-3.685467	beauty	-99
-4.530565	became	-99
-5.308716	becaming	-99
-3.495803	because	-99
-5.308716	becaused	-99
-3.752414	become	-99
-4.530565	becomes	-99
-4.706656	becoming	-99
-5.308716	becuse	-99
-3.523386	bed	-99
-5.308716	bed-	-99
-5.308716	bedbugs	-99
-4.609746	bedroom	-99
-4.831594	bedspread	-99
-4.530565	bee	-99
-5.308716	beef	-99
-4.530565	been	-99
-4.308716	beer	-99
-5.308716	beers	-99
-4.831594	bees	-99
-3.236834	before	-99
-5.308716	befriending	-99
-5.007686	beg	-99
-5.007686	began	-99
-5.308716	begger	-99
-4.405626	begging	-99
-4.530565	begin	-99
-4.530565	beginning	-99
-4.354474	begins	-99
-5.308716	begs	-99
-5.308716	behaviour	-99
-3.171995	behind	-99
-5.308716	behinds	-99
-4.354474	beige	-99
-3.027683	being	-99
-5.308716	beleiving	-99
-5.007686	believe	-99
-5.308716	believes	-99
-5.308716	believing	-99
-5.308716	beliving	-99
-5.007686	bellies	-99
-4.463618	belly	-99
-4.706656	belong	-99
-5.308716	belonging	-99
-5.007686	belongings	-99
-4.162588	beloved	-99
-5.308716	beloveds	-99
-3.946988	below	-99
-5.308716	belt	-99
-5.007686	belts	-99
-3.222356	bench	-99
-4.831594	benches	-99
-4.831594	bend	-99
-4.706656	bending	-99
-4.706656	bends	-99
-4.405626	beneath	-99
-5.308716	benefits	-99
-5.007686	bent	-99
-5.007686	beret	-99
-5.308716	bermuda	-99
-5.007686	bernard	-99
-3.609746	beside	-99
-5.308716	besides	-99
-5.308716	bespectacled	-99
-3.445393	best	-99
-4.831594	bet	-99
-5.308716	betrayal	-99
-5.308716	bets	-99
-4.162588	better	-99
-5.007686	betting	-99
-5.308716	betty	-99
-3.764648	between	-99
-5.308716	beverage	-99
-5.308716	beverages	-99
-5.308716	bevy	-99
-4.831594	bib	-99
-3.156428	bicycle	-99
-4.831594	bicycler	-99
-4.029963	bicycles	-99
-5.308716	bicycling	-99
-4.053443	bicyclist	-99
-4.354474	bicyclists	-99
-5.308716	bicylce	-99
-5.308716	bides	-99
-5.308716	biek	-99
-3.251811	big	-99
-5.308716	big-foot	-99
-4.053443	bigfoot	-99
-4.831594	bigger	-99
-4.706656	biggest	-99
-2.866236	bike	-99
-3.445393	biker	-99
-4.132625	bikers	-99
-3.803566	bikes	-99
-4.267323	biking	-99
-4.194773	bikini	-99
-4.463618	bikinis	-99
-5.308716	bile	-99
-4.831594	bill	-99
-5.007686	billboard	-99
-5.308716	billboards	-99
-4.831594	billowing	-99
-5.308716	bills	-99
-4.831594	bin	-99
-5.308716	bind	-99
-5.007686	binocular	-99
-5.007686	binoculars	-99
-5.308716	biohazard	-99
-3.330992	bird	-99
-5.308716	bird-seed	-99
-4.007686	birds	-99
-4.831594	birth	-99
-4.132625	birthday	-99
-5.308716	biscuit	-99
-4.706656	bit	-99
-5.308716	bitch	-99
-4.104596	bite	-99
-4.308716	bites	-99
-3.790202	biting	-99
-5.007686	bits	-99
-5.007686	bitten	-99
-5.308716	bizarre	-99
-2.356408	black	-99
-5.308716	black-and-white	-99
-5.308716	black-haired	-99
-5.308716	black-t-shirt	-99
-5.308716	black-yellow	-99
-5.308716	blackboard	-99
-5.308716	blacking	-99
-5.007686	blacktop	-99
-5.308716	blacky	-99
-5.007686	blades	-99
-5.308716	blading	-99
-5.308716	blair	-99
-5.308716	blame	-99
-5.308716	blanker	-99
-4.078267	blanket	-99
-5.308716	blankets	-99
-4.530565	blast	-99
-5.308716	blasting	-99
-5.308716	blatantly	-99
-5.007686	blazing	-99
-5.308716	bleach	-99
-5.308716	bleached	-99
-4.706656	bleachers	-99
-5.308716	bleck	-99
-5.308716	blending	-99
-5.308716	blends	-99
-5.308716	bless	-99
-5.308716	blessing	-99
-5.308716	blew	-99
-5.308716	blimp	-99
-4.706656	blind	-99
-5.308716	blinded	-99
-5.308716	blinders	-99
-5.308716	blindfolded	-99
-5.007686	blindfolds	-99
-5.007686	blinding	-99
-5.308716	blingfolded	-99
-5.007686	bliss	-99
-5.007686	blissfully	-99
-5.308716	blisters	-99
-5.308716	blitz	-99
-4.308716	block	-99
-5.308716	blocking	-99
-4.308716	blocks	-99
-3.627475	blond	-99
-5.308716	blond-hair	-99
-3.509375	blonde	-99
-5.308716	blonde-haired	-99
-5.308716	blone	-99
-5.308716	blood	-99
-5.308716	bloody	-99
-5.308716	bloom	-99
-5.308716	blooms	-99
-5.308716	blossoming	-99
-5.007686	blossoms	-99
-5.007686	blouse	-99
-5.308716	blouses	-99
-4.463618	blow	-99
-5.308716	blower	-99
-3.877352	blowing	-99
-5.308716	blown	-99
-4.229535	blows	-99
-2.646903	blue	-99
-5.308716	blue-eyed	-99
-5.007686	blue-green	-99
-5.308716	blue-robed	-99
-5.308716	blueberry	-99
-5.308716	blueheadscarf	-99
-5.308716	blues	-99
-5.007686	bluff	-99
-4.706656	blurred	-99
-4.609746	blurry	-99
-5.308716	blurs	-99
-5.308716	blushes	-99
-5.308716	blushing	-99
-5.308716	bms	-99
-5.007686	bmw	-99
-3.803566	bmx	-99
-5.308716	bo	-99
-5.007686	boa	-99
-3.777237	board	-99
-5.308716	boarded	-99
-4.831594	boarder	-99
-4.354474	boarding	-99
-4.706656	boards	-99
-4.354474	boardwalk	-99
-5.308716	boart	-99
-3.304394	boat	-99
-4.132625	boats	-99
-5.308716	bobbing	-99
-5.308716	bobbles	-99
-4.609746	bodies	-99
-3.728932	body	-99
-5.308716	bodyboarder	-99
-5.308716	bodyless	-99
-5.007686	bog	-99
-5.308716	boisterously	-99
-5.308716	bold	-99
-5.308716	bombing	-99
-4.706656	bond	-99
-4.267323	bonding	-99
-5.308716	bonds	-99
-3.645958	bone	-99
-5.308716	bonefish	-99
-3.218811	bones	-99
-5.007686	bonfire	-99
-5.007686	bonnets	-99
-5.308716	boobs	-99
-5.308716	booger	-99
-4.308716	boogie	-99
-5.308716	booing	-99
-3.790202	book	-99
-5.308716	booked	-99
-5.308716	booking	-99
-5.308716	booklets	-99
-4.831594	books	-99
-5.308716	bookshelf	-99
-5.308716	bookstore	-99
-5.308716	boom	-99
-5.308716	boot	-99
-5.308716	booth	-99
-5.308716	booths	-99
-4.007686	boots	-99
-5.308716	booty	-99
-4.706656	border	-99
-4.354474	bored	-99
-5.308716	boredom	-99
-4.831594	boring	-99
-5.308716	boringly	-99
-4.609746	boss	-99
-5.308716	bossy	-99
-5.007686	boston	-99
-3.717651	both	-99
-5.007686	botteld	-99
-3.946988	bottle	-99
-5.007686	bottles	-99
-3.966293	bottom	-99
-5.007686	bottoms	-99
-4.706656	bought	-99
-4.706656	boulder	-99
-4.354474	bounce	-99
-5.308716	bounced	-99
-4.706656	bounces	-99
-5.308716	bounciness	-99
-4.267323	bouncing	-99
-5.007686	bouncy	-99
-4.609746	bound	-99
-5.308716	boundaries	-99
-4.609746	bounding	-99
-5.308716	boundle	-99
-4.405626	bounds	-99
-5.007686	bouquet	-99
-4.706656	bow	-99
-5.308716	bow-tie	-99
-4.267323	bowl	-99
-5.308716	bowler	-99
-4.530565	bowling	-99
-4.706656	bowls	-99
-5.007686	bows	-99
-4.229535	box	-99
-4.706656	boxer	-99
-5.308716	boxers	-99
-4.609746	boxes	-99
-4.463618	boxing	-99
-2.253338	boy	-99
-3.928505	boyfriend	-99
-4.308716	boyfriends	-99
-2.98238	boys	-99
-4.831594	bracelet	-99
-5.007686	braces	-99
-5.308716	bracing	-99
-5.308716	brag	-99
-5.308716	braid	-99
-5.308716	braids	-99
-5.007686	brakes	-99
-4.104596	branch	-99
-4.831594	branches	-99
-5.308716	brandy	-99
-5.308716	bras	-99
-5.308716	brat	-99
-4.229535	brave	-99
-4.530565	bravely	-99
-5.308716	braves	-99
-5.308716	brawl	-99
-5.308716	brazilian	-99
-5.007686	bread	-99
-3.928505	break	-99
-5.308716	breakdown	-99
-5.007686	breakfast	-99
-4.132625	breaking	-99
-5.007686	breaks	-99
-5.308716	breastfeeding	-99
-5.308716	breaststroke	-99
-4.463618	breath	-99
-5.007686	breathe	-99
-5.308716	breather	-99
-5.308716	breathes	-99
-5.007686	breathing	-99
-5.007686	breathtaking	-99
-5.007686	breeds	-99
-4.463618	breeze	-99
-5.308716	breezeway	-99
-5.308716	breezy	-99
-3.752414	brick	-99
-5.308716	bridal	-99
-3.928505	bride	-99
-4.831594	brides	-99
-5.308716	bridesmaids	-99
-3.61852	bridge	-99
-5.308716	briefcases	-99
-5.007686	briefly	-99
-5.308716	brigade	-99
-3.728932	bright	-99
-5.308716	brightest	-99
-4.354474	brightly	-99
-5.308716	brightly-colored	-99
-5.308716	brighty	-99
-5.308716	brindle	-99
-4.078267	bring	-99
-5.308716	bringin	-99
-4.308716	bringing	-99
-4.463618	brings	-99
-5.007686	british	-99
-5.308716	bro-mance	-99
-5.308716	broccoli	-99
-5.308716	brochure	-99
-5.007686	broke	-99
-4.029963	broken	-99
-5.308716	bronze	-99
-5.308716	brook	-99
-4.831594	broom	-99
-5.007686	brooms	-99
-4.053443	brother	-99
-5.308716	brotherhood	-99
-5.007686	brotherly	-99
-4.831594	brothers	-99
-4.405626	brought	-99
-5.308716	brow	-99
-2.476207	brown	-99
-5.308716	brown-and-white	-99
-5.308716	brown-eyed	-99
-5.308716	brown-spotted	-99
-5.007686	brownish	-99
-5.308716	brownstone	-99
-5.308716	browny	-99
-5.308716	browse	-99
-5.308716	browses	-99
-5.007686	bruises	-99
-5.007686	brunch	-99
-4.609746	brunette	-99
-4.706656	brush	-99
-5.007686	brush-land	-99
-5.308716	brushed	-99
-4.831594	brushes	-99
-5.308716	bting	-99
-4.194773	bubble	-99
-3.790202	bubbles	-99
-5.007686	bubbly	-99
-5.007686	buck	-99
-4.078267	bucket	-99
-4.267323	buckets	-99
-5.007686	bucking	-99
-5.308716	buddies	-99
-4.831594	buddy	-99
-5.308716	budweiser-sponsored	-99
-4.831594	bug	-99
-5.308716	buggies	-99
-5.308716	buggy	-99
-5.007686	bugs	-99
-5.308716	buidings	-99
-4.194773	build	-99
-3.159497	building	-99
-4.229535	buildings	-99
-5.007686	built	-99
-5.308716	bulb	-99
-3.986497	bull	-99
-5.308716	bull-run	-99
-5.007686	bulldog	-99
-5.308716	bulldogs	-99
-4.831594	bullet	-99
-5.308716	bullfighting	-99
-5.308716	bullied	-99
-5.308716	bullock	-99
-4.530565	bulls	-99
-5.308716	bullying	-99
-5.308716	bum	-99
-5.308716	bumblebee	-99
-5.007686	bump	-99
-5.308716	bumped	-99
-5.007686	bumps	-99
-5.007686	bumpy	-99
-4.831594	bun	-99
-4.078267	bunch	-99
-5.308716	bundle	-99
-4.706656	bundled	-99
-5.007686	bundles	-99
-4.405626	bungee	-99
-5.308716	bungie	-99
-5.308716	bunion	-99
-5.308716	bunk	-99
-5.007686	bunnies	-99
-4.267323	bunny	-99
-5.308716	bunyan	-99
-5.007686	buoy	-99
-5.308716	buoys	-99
-5.308716	burger	-99
-4.831594	burgers	-99
-5.308716	burglarized	-99
-5.007686	burgundy	-99
-4.354474	buried	-99
-5.007686	buries	-99
-5.308716	burka	-99
-5.308716	burly	-99
-5.308716	burn	-99
-4.609746	burned	-99
-4.706656	burning	-99
-5.007686	burns	-99
-5.308716	burp	-99
-4.706656	burping	-99
-5.308716	burps	-99
-5.308716	burrows	-99
-5.007686	bury	-99
-3.817354	bus	-99
-5.007686	buses	-99
-4.609746	bush	-99
-5.308716	bushels	-99
-4.405626	bushes	-99
-4.706656	bushy	-99
-5.308716	busily	-99
-4.609746	business	-99
-5.308716	businesses	-99
-5.308716	busquits	-99
-5.007686	bust	-99
-5.308716	busted	-99
-5.308716	bustle	-99
-5.308716	busty	-99
-3.740514	busy	-99
-3.509375	but	-99
-5.308716	butler	-99
-4.463618	butt	-99
-4.609746	butter	-99
-4.831594	butterflies	-99
-4.405626	butterfly	-99
-5.308716	butting	-99
-5.308716	buttinski	-99
-4.530565	button	-99
-5.308716	button-up	-99
-5.308716	butts	-99
-4.308716	buy	-99
-4.706656	buying	-99
-5.308716	buzy	-99
-5.308716	buzzing	-99
-2.616751	by	-99
-5.308716	bycicle	-99
-5.308716	bycycle	-99
-5.308716	byte	-99
-4.194773	ca	-99
-4.831594	cab	-99
-5.308716	cabin	-99
-4.831594	cable	-99
-5.308716	cacti	-99
-5.308716	cactus	-99
-5.308716	cadet	-99
-5.308716	caerfully	-99
-4.354474	cafe	-99
-4.706656	cage	-99
-5.308716	caged	-99
-4.194773	cake	-99
-5.308716	cakes	-99
-5.308716	calamity	-99
-5.308716	calculus	-99
-5.308716	calf	-99
-5.308716	calico	-99
-5.308716	california	-99
-4.308716	call	-99
-4.530565	called	-99
-4.229535	calling	-99
-4.405626	calm	-99
-4.706656	calmly	-99
-5.308716	calmness	-99
-5.308716	calories	-99
-5.308716	camcorder	-99
-4.609746	came	-99
-4.354474	camel	-99
-4.405626	camels	-99
-3.007686	camera	-99
-5.308716	camerades	-99
-5.308716	cameraless	-99
-4.706656	cameraman	-99
-4.530565	cameras	-99
-4.405626	camouflage	-99
-4.530565	camp	-99
-5.308716	campaigning	-99
-5.308716	camper	-99
-4.609746	campfire	-99
-4.405626	camping	-99
-4.706656	campsite	-99
-4.831594	campus	-99
-3.502536	can	-99
-5.308716	canada	-99
-5.308716	canadian	-99
-5.308716	canal	-99
-5.308716	candidate	-99
-5.007686	candies	-99
-5.007686	candle	-99
-4.405626	candles	-99
-3.817354	candy	-99
-5.308716	cane	-99
-5.308716	canine	-99
-5.308716	canned	-99
-4.706656	cannon	-99
-5.308716	cannonballs	-99
-3.846318	canoe	-99
-4.831594	canoeing	-99
-4.530565	canoes	-99
-5.308716	canon	-99
-5.308716	canopy	-99
-4.706656	cans	-99
-5.007686	cant	-99
-5.007686	canvas	-99
-5.308716	canvass	-99
-4.706656	canyon	-99
-3.695932	cap	-99
-5.308716	capabilities	-99
-5.308716	capable	-99
-5.308716	capacity	-99
-4.405626	cape	-99
-5.007686	capes	-99
-5.308716	capped	-99
-4.706656	caps	-99
-5.308716	capsizing	-99
-5.007686	captain	-99
-5.308716	captivated	-99
-5.308716	captivates	-99
-5.308716	captive	-99
-4.267323	capture	-99
-5.308716	captured	-99
-4.831594	capturing	-99
-3.156428	car	-99
-5.308716	caramel	-99
-5.308716	caravan	-99
-4.706656	card	-99
-4.267323	cardboard	-99
-5.308716	cardigan	-99
-5.308716	cardio	-99
-4.706656	cards	-99
-4.078267	care	-99
-5.308716	care-free	-99
-5.007686	career	-99
-5.007686	carefree	-99
-4.831594	careful	-99
-3.877352	carefully	-99
-5.007686	caregiver	-99
-5.308716	careless	-99
-5.308716	cares	-99
-5.007686	caress	-99
-4.831594	caring	-99
-4.104596	carnival	-99
-5.308716	carnivalyet	-99
-5.308716	carnivorous	-99
-5.007686	carols	-99
-5.007686	carousel	-99
-4.078267	carpet	-99
-5.308716	carpeted	-99
-4.463618	carriage	-99
-5.308716	carriage-ride	-99
-4.463618	carried	-99
-5.007686	carrier	-99
-3.61852	carries	-99
-5.308716	carring	-99
-5.308716	carrots	-99
-4.463618	carry	-99
-3.233169	carrying	-99
-3.893743	cars	-99
-5.308716	carsick	-99
-4.078267	cart	-99
-5.007686	carton	-99
-5.308716	cartoons	-99
-4.530565	carts	-99
-5.007686	cartwheel	-99
-5.308716	cartwheels	-99
-5.308716	carved	-99
-5.007686	carves	-99
-5.007686	carving	-99
-5.308716	carwalk	-99
-4.831594	carying	-99
-4.609746	case	-99
-5.007686	cases	-99
-4.609746	cash	-99
-5.007686	casino	-99
-4.530565	cast	-99
-5.308716	castaway	-99
-4.463618	casting	-99
-4.609746	castle	-99
-5.308716	castles	-99
-5.007686	casual	-99
-4.354474	casually	-99
-3.627475	cat	-99
-5.308716	catapulted	-99
-2.914264	catch	-99
-5.308716	catched	-99
-4.308716	catcher	-99
-3.552841	catches	-99
-3.601146	catching	-99
-5.308716	caterpillars	-99
-4.308716	cats	-99
-5.308716	cattails	-99
-5.007686	cattle	-99
-4.029963	caught	-99
-4.530565	cause	-99
-5.308716	causes	-99
-4.609746	causing	-99
-5.007686	caution	-99
-5.308716	cautionsly	-99
-5.007686	cautiously	-99
-4.354474	cave	-99
-5.308716	caveman	-99
-5.308716	cavort	-99
-5.308716	cavorting	-99
-5.308716	cbs	-99
-5.308716	cds	-99
-4.609746	ceiling	-99
-3.728932	celebrate	-99
-5.308716	celebrated	-99
-4.463618	celebrates	-99
-3.645958	celebrating	-99
-4.354474	celebration	-99
-5.308716	celebratory	-99
-5.308716	celebreties	-99
-4.831594	celebrity	-99
-5.007686	cell	-99
-3.966293	cellphone	-99
-4.706656	cellphones	-99
-3.946988	cement	-99
-5.308716	cemetary	-99
-4.609746	center	-99
-5.007686	centipede	-99
-5.308716	central	-99
-5.007686	centuries	-99
-5.308716	century	-99
-5.308716	ceo	-99
-5.308716	cereal	-99
-4.463618	ceremony	-99
-5.308716	certain	-99
-5.308716	certificates	-99
-5.308716	certification	-99
-4.405626	chain	-99
-5.007686	chained	-99
-5.308716	chainsaw	-99
-3.655504	chair	-99
-3.928505	chairs	-99
-4.609746	chalk	-99
-5.308716	chalky	-99
-4.354474	challenge	-99
-5.308716	challenged	-99
-4.706656	challenges	-99
-4.354474	challenging	-99
-4.405626	champ	-99
-5.308716	champagne	-99
-4.194773	champion	-99
-5.007686	champions	-99
-4.194773	championship	-99
-4.831594	chance	-99
-5.308716	chances	-99
-4.405626	change	-99
-5.308716	changed	-99
-5.007686	changes	-99
-4.706656	changing	-99
-5.308716	chaperone	-99
-5.308716	chapstick	-99
-5.308716	chapter	-99
-5.007686	characters	-99
-5.308716	charges	-99
-5.308716	charished	-99
-4.706656	charity	-99
-4.831594	charm	-99
-5.308716	charmers	-99
-5.308716	charming	-99
-5.308716	charms	-99
-5.308716	chart	-99
-3.831595	chase	-99
-4.308716	chased	-99
-3.740514	chases	-99
-5.308716	chasess	-99
-3.287527	chasing	-99
-4.609746	chat	-99
-5.007686	chats	-99
-4.530565	chatting	-99
-5.308716	chauvinsts	-99
-5.308716	cheap	-99
-4.609746	check	-99
-4.609746	checkered	-99
-4.354474	checking	-99
-5.007686	checks	-99
-5.308716	checkstand	-99
-4.530565	cheek	-99
-5.308716	cheekily	-99
-4.831594	cheeks	-99
-4.354474	cheer	-99
-4.831594	cheered	-99
-5.007686	cheerfully	-99
-4.104596	cheering	-99
-4.530565	cheerleader	-99
-4.354474	cheerleaders	-99
-5.308716	cheerleading	-99
-4.308716	cheers	-99
-4.029963	cheese	-99
-5.308716	cheeseburger	-99
-4.831594	cheetah	-99
-5.308716	chef	-99
-5.308716	cherish	-99
-5.308716	cherry	-99
-4.706656	chess	-99
-4.463618	chest	-99
-5.308716	chested	-99
-4.308716	chew	-99
-5.007686	chewed	-99
-4.132625	chewing	-99
-4.229535	chews	-99
-5.308716	chewy	-99
-5.308716	chicago	-99
-5.308716	chick	-99
-4.194773	chicken	-99
-4.609746	chickens	-99
-5.007686	chid	-99
-2.635695	child	-99
-3.803566	childhood	-99
-5.308716	childhoods	-99
-5.308716	childhoold	-99
-5.308716	childlisly	-99
-2.664277	children	-99
-5.007686	childrens	-99
-5.308716	childs	-99
-5.308716	chili	-99
-5.308716	chill	-99
-5.308716	chilling	-99
-5.308716	chills	-99
-5.308716	chilly	-99
-5.308716	chimes	-99
-4.530565	chin	-99
-4.706656	china	-99
-5.007686	chinese	-99
-5.308716	chippy	-99
-5.007686	chips	-99
-5.308716	chirping	-99
-5.308716	chistmas	-99
-5.308716	chit	-99
-5.308716	chivalrously	-99
-4.229535	chocolate	-99
-5.007686	choice	-99
-5.007686	choices	-99
-5.308716	chokes	-99
-5.308716	chompionship	-99
-5.308716	chomps	-99
-4.831594	choose	-99
-5.308716	chop	-99
-5.308716	chops	-99
-4.706656	chopsticks	-99
-5.308716	chores	-99
-5.308716	christ	-99
-4.053443	christmas	-99
-5.308716	chubby	-99
-5.007686	chunk	-99
-4.405626	church	-99
-5.308716	churro	-99
-5.308716	cigar	-99
-3.893743	cigarette	-99
-5.007686	cigarettes	-99
-5.308716	cigars	-99
-5.007686	cinderella	-99
-4.609746	circle	-99
-4.609746	circles	-99
-5.007686	circuit	-99
-4.706656	circular	-99
-5.308716	circulation	-99
-5.308716	circumvents	-99
-4.354474	circus	-99
-5.308716	cirgarette	-99
-5.007686	citizen	-99
-4.831594	citizens	-99
-3.359326	city	-99
-5.308716	civic	-99
-5.308716	clack	-99
-5.308716	claim	-99
-5.308716	clams	-99
-5.308716	clannish	-99
-5.007686	clap	-99
-5.007686	clapped	-99
-4.463618	clapping	-99
-5.308716	claps	-99
-4.007686	class	-99
-5.308716	classic	-99
-5.308716	classmates	-99
-5.308716	classroom	-99
-4.405626	claus	-99
-4.354474	clause	-99
-5.308716	claustrophobia	-99
-5.308716	clay	-99
-4.029963	clean	-99
-5.007686	cleaned	-99
-4.609746	cleaning	-99
-5.308716	cleans	-99
-5.308716	cleansing	-99
-4.053443	clear	-99
-5.007686	clearing	-99
-5.308716	clearly	-99
-5.007686	clears	-99
-5.308716	clemson	-99
-4.706656	cleverly	-99
-4.706656	click	-99
-3.400231	cliff	-99
-5.007686	cliffs	-99
-5.308716	cliffside	-99
-4.706656	climate	-99
-5.308716	climax	-99
-3.706656	climb	-99
-4.530565	climbed	-99
-3.717651	climber	-99
-4.308716	climbers	-99
-5.308716	climbin	-99
-3.083407	climbing	-99
-3.482641	climbs	-99
-5.308716	climing	-99
-5.308716	clims	-99
-5.308716	clinging	-99
-5.007686	clings	-99
-5.308716	clinton	-99
-5.308716	clips	-99
-5.308716	cloaks	-99
-5.308716	clogs	-99
-5.308716	cloned	-99
-3.946988	close	-99
-4.706656	close-up	-99
-4.405626	closed	-99
-4.463618	closely	-99
-4.706656	closer	-99
-5.007686	closes	-99
-5.308716	closet	-99
-4.053443	closeup	-99
-5.308716	closing	-99
-4.229535	cloth	-99
-5.007686	clothed	-99
-3.665263	clothes	-99
-3.717651	clothing	-99
-5.308716	cloths	-99
-5.308716	clots	-99
-4.706656	cloud	-99
-4.308716	clouds	-99
-4.831594	cloudy	-99
-5.007686	clover	-99
-3.893743	clown	-99
-5.308716	clown-makeup	-99
-4.229535	clowns	-99
-4.530565	club	-99
-5.308716	clubhouse	-99
-5.308716	clueless	-99
-5.308716	clumsily	-99
-5.308716	cluster	-99
-5.308716	clustered	-99
-5.007686	clutches	-99
-4.530565	coach	-99
-5.308716	coaches	-99
-4.308716	coaster	-99
-3.537864	coat	-99
-5.007686	coated	-99
-4.308716	coats	-99
-5.007686	cobblestone	-99
-5.308716	cocaine	-99
-5.308716	cockroach	-99
-5.007686	cockroaches	-99
-5.007686	cocoa	-99
-5.308716	coconut	-99
-4.007686	coffee	-99
-5.308716	coiled	-99
-5.007686	coin	-99
-5.308716	cola	-99
-5.308716	colander	-99
-3.831595	cold	-99
-5.308716	cold-weather	-99
-5.308716	coldness	-99
-5.308716	collapsable	-99
-3.740514	collar	-99
-5.308716	collared	-99
-4.831594	collars	-99
-5.308716	colleage	-99
-4.831594	collect	-99
-5.007686	collected	-99
-4.831594	collecting	-99
-4.706656	collection	-99
-5.308716	collective	-99
-5.308716	collects	-99
-4.267323	college	-99
-5.308716	collegiate	-99
-5.007686	collide	-99
-4.229535	collie	-99
-5.308716	collision	-99
-5.308716	coloful	-99
-5.308716	colonial	-99
-4.405626	color	-99
-3.675247	colored	-99
-3.502536	colorful	-99
-4.831594	colorfully	-99
-4.831594	coloring	-99
-4.267323	colors	-99
-4.463618	colourful	-99
-5.007686	colourfully	-99
-5.308716	colours	-99
-5.308716	columns	-99
-5.308716	colur	-99
-4.831594	combat	-99
-5.308716	combing	-99
-5.308716	combo	-99
-3.861558	come	-99
-5.308716	comedian	-99
-5.308716	comedians	-99
-4.354474	comes	-99
-5.007686	comfort	-99
-5.007686	comfortable	-99
-4.609746	comfortably	-99
-5.308716	comforting	-99
-5.308716	comforts	-99
-5.308716	comic	-99
-5.308716	comically	-99
-5.308716	comics	-99
-3.910776	coming	-99
-5.308716	coming..splat	-99
-5.308716	command	-99
-5.007686	committed	-99
-5.308716	common	-99
-5.007686	communicate	-99
-5.308716	communicating	-99
-4.530565	community	-99
-5.007686	commuting	-99
-5.308716	compact	-99
-4.530565	companion	-99
-5.308716	companions	-99
-4.405626	company	-99
-5.308716	comparing	-99
-4.229535	compete	-99
-5.308716	competes	-99
-5.308716	competetive	-99
-4.053443	competing	-99
-3.523386	competition	-99
-5.007686	competitions	-99
-4.609746	competitive	-99
-5.007686	competitively	-99
-5.308716	competitor	-99
-5.308716	competitors	-99
-5.308716	complain	-99
-4.831594	complete	-99
-4.706656	completely	-99
-5.308716	completes	-99
-4.831594	completing	-99
-5.308716	complex	-99
-5.308716	complexion	-99
-5.308716	compliant	-99
-5.308716	composure	-99
-4.354474	computer	-99
-5.007686	computers	-99
-4.831594	concentrates	-99
-5.308716	concentrating	-99
-5.308716	concentration	-99
-5.007686	concern	-99
-5.007686	concerned	-99
-4.354474	concert	-99
-5.308716	concious	-99
-3.846318	concrete	-99
-5.007686	conditions	-99
-5.308716	condolence	-99
-5.308716	condom	-99
-5.007686	condoms	-99
-5.308716	conduct	-99
-4.194773	cone	-99
-4.405626	cones	-99
-5.308716	confers	-99
-4.706656	confetti	-99
-4.831594	confidence	-99
-5.007686	confident	-99
-4.463618	confidently	-99
-5.308716	confront	-99
-4.530565	confused	-99
-5.007686	confusing	-99
-5.308716	confusion	-99
-5.308716	congratulatory	-99
-5.308716	congregate	-99
-5.308716	congregated	-99
-5.308716	congregation	-99
-5.308716	connect	-99
-4.831594	connected	-99
-3.601146	conquer	-99
-5.007686	conquered	-99
-4.609746	conquering	-99
-5.308716	considered	-99
-5.308716	considering	-99
-5.308716	conspiracy	-99
-5.308716	constructed	-99
-4.354474	construction	-99
-5.308716	constructions	-99
-5.007686	contact	-99
-4.831594	container	-99
-5.308716	containers	-99
-5.007686	containing	-99
-4.530565	contemplates	-99
-4.007686	contemplating	-99
-5.308716	contenders	-99
-5.308716	content	-99
-5.007686	contently	-99
-5.308716	contents	-99
-4.405626	contest	-99
-5.007686	contestant	-99
-5.308716	continue	-99
-5.007686	continues	-99
-5.308716	continuously	-99
-5.308716	contraption	-99
-5.308716	contrast	-99
-5.308716	contrasts	-99
-4.229535	control	-99
-5.308716	controled	-99
-5.308716	controller	-99
-5.308716	controls	-99
-5.308716	contruction	-99
-5.007686	convenience	-99
-5.308716	convention	-99
-4.530565	conversation	-99
-5.308716	conversations	-99
-4.831594	converse	-99
-4.831594	conversing	-99
-5.308716	convey	-99
-4.831594	cook	-99
-5.007686	cookie	-99
-5.007686	cookies	-99
-4.405626	cooking	-99
-5.308716	cookout	-99
-5.308716	cooks	-99
-3.609746	cool	-99
-5.007686	cooler	-99
-4.530565	cooling	-99
-5.308716	coolly	-99
-5.308716	coolness	-99
-5.308716	cools	-99
-5.308716	coopers	-99
-5.308716	coordinator	-99
-5.007686	cooties	-99
-4.706656	cop	-99
-5.308716	copied	-99
-5.308716	coppery	-99
-5.308716	copying	-99
-4.706656	cord	-99
-4.831594	cords	-99
-5.308716	core	-99
-5.308716	corgi	-99
-4.831594	corn	-99
-5.308716	corndog	-99
-5.308716	corndogs	-99
-4.194773	corner	-99
-5.308716	cornstalks	-99
-4.831594	corporate	-99
-5.308716	corpses	-99
-5.308716	corral	-99
-5.308716	correct	-99
-5.308716	correctly	-99
-5.308716	corridor	-99
-5.308716	cosplayers	-99
-5.308716	cost	-99
-5.308716	costs	-99
-3.665263	costume	-99
-4.463618	costumed	-99
-3.846318	costumes	-99
-5.007686	cots	-99
-5.308716	cottage	-99
-4.831594	cotton	-99
-3.777237	couch	-99
-5.308716	couching	-99
-5.308716	cough	-99
-4.053443	could	-99
-4.831594	count	-99
-4.463618	counter	-99
-4.463618	counting	-99
-4.194773	country	-99
-4.354474	countryside	-99
-5.308716	countrysides	-99
-5.308716	counts	-99
-5.007686	county	-99
-3.335588	couple	-99
-4.463618	couples	-99
-3.706656	courage	-99
-5.007686	courageous	-99
-3.627475	course	-99
-3.910776	court	-99
-5.007686	courtship	-99
-4.354474	courtyard	-99
-4.831594	cousin	-99
-4.530565	cover	-99
-3.374218	covered	-99
-4.354474	covering	-99
-4.706656	coverings	-99
-4.530565	covers	-99
-4.162588	cow	-99
-4.229535	cowboy	-99
-5.007686	cowboys	-99
-5.308716	cowgirls	-99
-5.308716	coworkers	-99
-4.831594	cows	-99
-5.308716	coyotes	-99
-5.007686	cpr	-99
-4.706656	crab	-99
-5.308716	crabby	-99
-4.706656	crabs	-99
-4.831594	crack	-99
-5.308716	cracked	-99
-5.308716	cracken	-99
-5.308716	cracker	-99
-5.308716	crackers	-99
-5.308716	craft	-99
-5.308716	crafts	-99
-5.308716	cramped	-99
-5.308716	crampons	-99
-4.609746	crane	-99
-5.007686	crank	-99
-4.132625	crash	-99
-4.609746	crashes	-99
-4.831594	crashing	-99
-4.831594	crate	-99
-5.308716	crates	-99
-4.831594	crawling	-99
-4.609746	crawls	-99
-5.308716	crazily	-99
-4.229535	crazy	-99
-4.007686	cream	-99
-4.706656	create	-99
-5.308716	created	-99
-5.007686	creates	-99
-4.405626	creating	-99
-5.308716	creation	-99
-5.308716	creativity	-99
-5.007686	creature	-99
-5.007686	creatures	-99
-5.007686	credits	-99
-4.267323	creek	-99
-5.308716	creeps	-99
-5.308716	creepy	-99
-5.007686	crest	-99
-5.308716	cresting	-99
-5.007686	crests	-99
-5.007686	crevasse	-99
-5.308716	crib	-99
-4.053443	cricket	-99
-5.308716	crickets	-99
-5.007686	cries	-99
-5.308716	crime	-99
-5.308716	criminal	-99
-5.308716	criminals	-99
-4.609746	crisp	-99
-5.308716	critic	-99
-5.308716	crocks	-99
-4.706656	crocodile	-99
-5.308716	crooked	-99
-5.308716	crops	-99
-5.007686	croquet	-99
-5.308716	croquette	-99
-3.877352	cross	-99
-4.463618	cross-country	-99
-5.007686	crossbones	-99
-4.609746	crossed	-99
-4.354474	crosses	-99
-4.104596	crossing	-99
-5.308716	crosslegged	-99
-4.831594	crosswalk	-99
-5.308716	crotch	-99
-5.308716	crouch	-99
-5.007686	crouched	-99
-4.267323	crouches	-99
-4.609746	crouching	-99
-5.308716	croud	-99
-5.308716	croude	-99
-5.308716	crow	-99
-3.027683	crowd	-99
-4.029963	crowded	-99
-5.007686	crowds	-99
-5.308716	crowed	-99
-4.609746	crown	-99
-5.007686	crowns	-99
-5.007686	crows	-99
-5.308716	cruising	-99
-5.007686	crumbling	-99
-5.308716	crunchy	-99
-4.308716	crush	-99
-4.831594	crushing	-99
-5.308716	cry	-99
-4.267323	crying	-99
-5.308716	crystal-clear	-99
-5.308716	crystals	-99
-5.308716	cucumbers	-99
-5.007686	cuddle	-99
-5.308716	cuddling	-99
-5.308716	cult	-99
-4.831594	culture	-99
-4.029963	cup	-99
-5.007686	cups	-99
-4.162588	curb	-99
-5.308716	cure	-99
-5.308716	curing	-99
-4.267323	curious	-99
-5.308716	curiousity	-99
-4.267323	curiously	-99
-5.308716	curl	-99
-5.308716	curled	-99
-4.405626	curly	-99
-5.007686	curly-haired	-99
-4.706656	current	-99
-5.308716	currently	-99
-5.308716	currents	-99
-5.308716	curses	-99
-5.308716	curtain	-99
-4.706656	curve	-99
-4.609746	curved	-99
-5.308716	curves	-99
-5.308716	curvy	-99
-4.831594	cushion	-99
-5.308716	customary	-99
-4.831594	customer	-99
-4.831594	customers	-99
-4.405626	cut	-99
-5.308716	cut-outs	-99
-4.029963	cute	-99
-4.609746	cutely	-99
-5.308716	cuter	-99
-5.308716	cutest	-99
-5.007686	cutie	-99
-5.308716	cutout	-99
-5.308716	cutouts	-99
-5.007686	cuts	-99
-4.530565	cutting	-99
-4.706656	cycle	-99
-5.308716	cycles	-99
-4.706656	cycling	-99
-4.053443	cyclist	-99
-4.354474	cyclists	-99
-5.308716	d.c	-99
-4.530565	dachshund	-99
-5.308716	dachshunds	-99
-5.308716	dacoits	-99
-5.308716	dacshund	-99
-4.194773	dad	-99
-4.609746	daddy	-99
-5.007686	daily	-99
-5.007686	daintily	-99
-5.308716	daisies	-99
-5.308716	dalmatians	-99
-4.706656	dalmation	-99
-5.308716	damage	-99
-3.636618	dance	-99
-4.354474	dancer	-99
-4.831594	dancers	-99
-3.861558	dances	-99
-3.489172	dancing	-99
-5.308716	dancingly	-99
-4.831594	dandelion	-99
-5.007686	dandelions	-99
-5.308716	dandylions	-99
-4.463618	danger	-99
-4.530565	dangerous	-99
-5.308716	dangerously	-99
-5.308716	dangles	-99
-5.308716	dangling	-99
-5.308716	dank	-99
-5.308716	dappled	-99
-4.609746	dare	-99
-4.706656	daredevil	-99
-5.308716	daredevils	-99
-4.308716	daring	-99
-5.007686	daringly	-99
-3.523386	dark	-99
-5.308716	dark-colored	-99
-4.831594	dark-haired	-99
-5.007686	dark-skinned	-99
-5.007686	darkened	-99
-5.007686	darkness	-99
-5.007686	darling	-99
-5.308716	darn	-99
-5.308716	dart	-99
-5.308716	dashboard	-99
-5.308716	dashing	-99
-3.717651	date	-99
-5.308716	dateing	-99
-4.831594	dates	-99
-4.029963	dating	-99
-4.229535	daughter	-99
-5.308716	david	-99
-2.98857	day	-99
-4.609746	daydreaming	-99
-5.007686	daylight	-99
-4.405626	days	-99
-4.194773	dead	-99
-4.609746	deadly	-99
-5.007686	deaf	-99
-5.007686	dealing	-99
-5.308716	deals	-99
-4.530565	dear	-99
-4.354474	death	-99
-5.308716	debate	-99
-5.308716	debating	-99
-5.308716	debonair	-99
-5.308716	decapitated	-99
-5.007686	decide	-99
-5.007686	decided	-99
-5.308716	decides	-99
-5.007686	deciding	-99
-4.267323	deck	-99
-5.308716	decked	-99
-5.308716	decorate	-99
-4.463618	decorated	-99
-5.308716	decoration	-99
-5.308716	decorative	-99
-5.308716	decoys	-99
-5.007686	dedicates	-99
-3.877352	deep	-99
-4.530565	deeply	-99
-4.405626	deer	-99
-5.007686	default	-99
-4.831594	defeat	-99
-5.308716	defeating	-99
-4.831594	defend	-99
-5.308716	defender	-99
-5.308716	defenders	-99
-4.706656	defending	-99
-5.308716	defensive	-99
-5.308716	defiant	-99
-4.831594	deflated	-99
-4.831594	defying	-99
-5.308716	degree	-99
-5.308716	delay	-99
-5.308716	deliberately	-99
-5.308716	delicately	-99
-4.609746	delicious	-99
-5.308716	deliciously	-99
-5.308716	deliciousness	-99
-4.609746	delight	-99
-5.308716	delighted	-99
-5.308716	delightfully	-99
-5.308716	delighting	-99
-5.308716	deliver	-99
-5.308716	delivering	-99
-5.308716	delivers	-99
-4.831594	demanding	-99
-5.308716	demeanor	-99
-5.308716	democratic	-99
-5.308716	demolished	-99
-4.831594	demonstrate	-99
-5.007686	demonstrates	-99
-5.007686	demonstrating	-99
-5.007686	demonstration	-99
-5.308716	den	-99
-5.308716	denali	-99
-4.194773	denim	-99
-5.308716	dense	-99
-5.308716	dentists	-99
-5.308716	deodorant	-99
-4.831594	department	-99
-5.308716	deposit	-99
-5.308716	depression	-99
-5.308716	depths	-99
-4.831594	derby	-99
-5.308716	derring-do	-99
-5.308716	descend	-99
-4.463618	descending	-99
-5.308716	descends	-99
-4.007686	desert	-99
-5.308716	deserves	-99
-5.308716	design	-99
-5.308716	desire	-99
-4.463618	desk	-99
-5.308716	despair	-99
-5.308716	desparately	-99
-5.308716	desperate	-99
-4.609746	desperately	-99
-5.308716	despite	-99
-5.308716	dessert	-99
-4.354474	destination	-99
-4.007686	destiny	-99
-5.308716	destroy	-99
-5.007686	detective	-99
-5.308716	determination	-99
-5.308716	determindly	-99
-4.609746	determine	-99
-3.530565	determined	-99
-5.308716	determining	-99
-5.308716	devel	-99
-4.530565	device	-99
-4.831594	devices	-99
-5.007686	devil	-99
-5.007686	devoted	-99
-5.308716	dg	-99
-5.007686	diamond	-99
-5.308716	diamonds	-99
-4.831594	diaper	-99
-4.706656	diapers	-99
-5.308716	dice	-99
-5.007686	dictation	-99
-4.308716	did	-99
-5.007686	die	-99
-5.308716	differ	-99
-5.308716	difference	-99
-5.308716	differences	-99
-3.966293	different	-99
-4.831594	difficult	-99
-5.308716	difficulty	-99
-5.007686	dig	-99
-5.308716	digger	-99
-4.029963	digging	-99
-4.530565	digs	-99
-5.007686	dim	-99
-5.308716	dim-light	-99
-5.308716	dimension	-99
-4.706656	dimly	-99
-5.308716	dine	-99
-5.007686	diner	-99
-5.308716	dining	-99
-3.817354	dinner	-99
-5.308716	dinnertime	-99
-4.831594	dinosaur	-99
-4.831594	dinosaurs	-99
-5.007686	dip	-99
-5.308716	diplomas	-99
-5.308716	diplomats	-99
-5.308716	dipped	-99
-4.530565	direction	-99
-5.007686	directions	-99
-5.308716	directly	-99
-5.007686	director	-99
-5.308716	directory	-99
-5.308716	directs	-99
-3.07572	dirt	-99
-5.308716	dirtbike	-99
-5.308716	dirtbikers	-99
-3.877352	dirty	-99
-5.308716	disagree	-99
-5.308716	disappear	-99
-4.706656	disappeared	-99
-5.007686	disappearing	-99
-5.007686	disappears	-99
-5.308716	disappointed	-99
-5.308716	disaster	-99
-4.229535	disc	-99
-5.308716	discarded	-99
-5.308716	discipline	-99
-5.308716	disco	-99
-5.308716	discomposure	-99
-4.831594	discover	-99
-5.308716	discovered	-99
-4.706656	discovering	-99
-5.308716	discovers	-99
-5.308716	discovery	-99
-5.308716	discretely	-99
-4.609746	discuss	-99
-5.308716	discusses	-99
-4.530565	discussing	-99
-5.308716	disdain	-99
-5.308716	disease	-99
-5.308716	disgusted	-99
-5.308716	disgustedly	-99
-5.308716	disgusting	-99
-4.609746	dish	-99
-4.831594	dishes	-99
-4.831594	disk	-99
-5.308716	dislikes	-99
-5.308716	dismay	-99
-5.007686	disney	-99
-5.308716	disobeying	-99
-5.308716	disorganized	-99
-4.162588	display	-99
-5.308716	displayed	-99
-4.609746	displaying	-99
-5.308716	displays	-99
-5.308716	disregards	-99
-5.308716	disrupted	-99
-3.893743	distance	-99
-4.530565	distant	-99
-5.308716	distorted	-99
-5.308716	distract	-99
-4.831594	distracted	-99
-5.308716	distressed	-99
-5.308716	distribute	-99
-5.308716	district	-99
-5.308716	disturbed	-99
-5.308716	disturbing	-99
-4.609746	ditch	-99
-4.463618	dive	-99
-4.609746	diver	-99
-5.308716	divers	-99
-4.405626	dives	-99
-5.308716	divided	-99
-5.308716	divine	-99
-3.877352	diving	-99
-5.007686	divorce	-99
-5.308716	divorcee	-99
-4.609746	dizzy	-99
-4.831594	dj	-99
-3.457458	do	-99
-4.831594	doberman	-99
-5.308716	dobermans	-99
-5.308716	dobernab	-99
-3.717651	dock	-99
-5.308716	doctor	-99
-5.308716	dodge	-99
-5.308716	dodges	-99
-4.706656	dodging	-99
-3.28341	does	-99
-1.887112	dog	-99
-5.308716	dog-shirt	-99
-5.308716	dog-walk	-99
-5.007686	doge	-99
-5.308716	doggie	-99
-4.530565	doggy	-99
-5.308716	doggy-king	-99
-2.4144	dogs	-99
-5.007686	dogsled	-99
-3.115591	doing	-99
-4.831594	doll	-99
-4.706656	dollar	-99
-5.007686	dollars	-99
-5.308716	dolls	-99
-5.308716	dolly	-99
-4.354474	dolphin	-99
-4.609746	dolphins	-99
-5.308716	dome	-99
-5.308716	domes	-99
-5.308716	domestic	-99
-4.831594	domination	-99
-4.831594	domino	-99
-5.007686	donald	-99
-5.308716	donations	-99
-4.706656	done	-99
-5.007686	dong	-99
-5.308716	donkeys	-99
-5.007686	dont	-99
-4.706656	donut	-99
-4.831594	donuts	-99
-5.007686	donw	-99
-5.308716	doo	-99
-5.308716	doo-rag	-99
-4.267323	door	-99
-5.308716	doorbell	-99
-5.308716	doors	-99
-5.308716	doorstep	-99
-4.229535	doorway	-99
-5.308716	doremi	-99
-5.308716	dos	-99
-5.308716	dose	-99
-4.706656	dot	-99
-5.308716	dots	-99
-4.706656	double	-99
-5.308716	doughnut	-99
-5.308716	dove	-99
-2.517727	down	-99
-4.162588	downhill	-99
-5.308716	download	-99
-5.308716	downpour	-99
-5.007686	downs	-99
-5.308716	downsteps	-99
-5.308716	downtown	-99
-5.007686	downward	-99
-5.007686	dracula	-99
-4.706656	drag	-99
-5.308716	dragged	-99
-5.308716	dragging	-99
-5.007686	dragon	-99
-5.308716	dragonfly	-99
-5.308716	dragons	-99
-5.007686	drags	-99
-5.308716	dragster	-99
-4.609746	drain	-99
-5.308716	drainage	-99
-5.007686	dramatic	-99
-4.706656	dramatically	-99
-5.308716	drams	-99
-5.308716	draping	-99
-4.463618	drawing	-99
-5.007686	drawn	-99
-5.308716	dread	-99
-4.831594	dreadlocks	-99
-3.560528	dream	-99
-5.308716	dream-setting	-99
-5.308716	dreamed	-99
-5.308716	dreamily	-99
-3.502536	dreaming	-99
-3.645958	dreams	-99
-5.308716	dreamsitting	-99
-5.308716	dreamy	-99
-5.308716	dreeds	-99
-5.308716	drees	-99
-5.007686	drench	-99
-4.831594	drenched	-99
-3.349674	dress	-99
-5.308716	dressd	-99
-3.198126	dressed	-99
-5.308716	dresser	-99
-3.946988	dresses	-99
-5.308716	dressing	-99
-5.308716	dresss	-99
-5.308716	dresswear	-99
-5.308716	dribbled	-99
-4.463618	dribbles	-99
-5.007686	dried	-99
-5.007686	drift	-99
-5.308716	drifting	-99
-5.007686	drill	-99
-5.007686	drilling	-99
-3.61852	drink	-99
-3.706656	drinking	-99
-3.966293	drinks	-99
-5.308716	dripping	-99
-5.007686	drips	-99
-4.229535	drive	-99
-5.007686	driven	-99
-4.078267	driver	-99
-5.308716	driver-side	-99
-4.706656	drivers	-99
-4.162588	drives	-99
-4.706656	driveway	-99
-3.893743	driving	-99
-5.308716	drone	-99
-5.308716	drool	-99
-5.007686	drooling	-99
-5.007686	drooping	-99
-5.007686	drop	-99
-4.831594	droplets	-99
-4.831594	dropped	-99
-4.463618	dropping	-99
-5.308716	droppings	-99
-4.831594	drops	-99
-5.308716	drought	-99
-4.831594	drove	-99
-5.007686	drown	-99
-4.609746	drowning	-99
-5.308716	drugs	-99
-5.308716	druids	-99
-4.831594	drum	-99
-4.831594	drummer	-99
-4.405626	drums	-99
-3.910776	drunk	-99
-5.308716	drunken	-99
-3.803566	dry	-99
-5.308716	drying	-99
-5.308716	drys	-99
-4.104596	duck	-99
-4.194773	ducks	-99
-5.308716	ducky	-99
-4.831594	due	-99
-5.308716	duel	-99
-5.308716	duet	-99
-5.308716	duke	-99
-4.530565	dumb	-99
-5.308716	dumb-looking	-99
-5.308716	dumbbell	-99
-5.308716	dumbfounded	-99
-5.007686	dumbly	-99
-5.308716	dummy	-99
-5.007686	dump	-99
-5.308716	dumping	-99
-4.831594	dumps	-99
-5.007686	dumpsters	-99
-4.308716	dune	-99
-5.308716	dunes	-99
-4.706656	dunking	-99
-3.384437	during	-99
-5.308716	durnig	-99
-4.267323	dusk	-99
-4.405626	dust	-99
-4.609746	dusty	-99
-5.308716	dutifully	-99
-5.007686	duty	-99
-5.308716	dwarf	-99
-5.308716	dwarfed	-99
-5.007686	dwarfs	-99
-5.308716	dwelling	-99
-5.308716	dye	-99
-5.007686	dyed	-99
-5.308716	dying	-99
-5.308716	e-cigarettes	-99
-5.007686	e.t	-99
-2.926699	each	-99
-5.308716	each-other	-99
-4.405626	eachother	-99
-4.463618	eager	-99
-4.132625	eagerly	-99
-5.308716	eagerness	-99
-4.267323	eagle	-99
-5.308716	eagles	-99
-4.267323	ear	-99
-5.308716	eared	-99
-5.308716	earlier	-99
-4.530565	early	-99
-5.308716	earmuffs	-99
-4.609746	earn	-99
-5.007686	earning	-99
-5.308716	earns	-99
-4.831594	earphones	-99
-5.308716	earpiece	-99
-5.007686	earrings	-99
-4.029963	ears	-99
-4.609746	earth	-99
-5.308716	earthquake	-99
-4.831594	easier	-99
-4.530565	easily	-99
-4.405626	easter	-99
-5.308716	eastern	-99
-5.007686	easy	-99
-3.728932	eat	-99
-5.308716	eaten	-99
-3.545288	eating	-99
-4.029963	eats	-99
-5.308716	eavesdropping	-99
-4.706656	ecstatic	-99
-5.308716	eden	-99
-3.706656	edge	-99
-5.308716	edgein	-99
-5.308716	edges	-99
-5.308716	edible	-99
-5.308716	education	-99
-5.308716	effect	-99
-5.308716	effects	-99
-5.007686	effort	-99
-5.007686	efforts	-99
-5.007686	egg	-99
-4.405626	eggs	-99
-5.308716	egret	-99
-5.308716	eguptian	-99
-5.308716	egyptian	-99
-5.308716	egytian-like	-99
-4.609746	eight	-99
-5.007686	either	-99
-5.007686	ejected	-99
-4.463618	elaborate	-99
-5.308716	elated	-99
-4.831594	elder	-99
-3.877352	elderly	-99
-5.007686	electric	-99
-5.308716	electrical	-99
-4.831594	electricity	-99
-5.308716	electrified	-99
-4.831594	electronic	-99
-4.831594	electronics	-99
-5.308716	elegant	-99
-5.308716	elegantly	-99
-4.162588	elephant	-99
-4.609746	elephants	-99
-5.308716	elevated	-99
-5.007686	elevator	-99
-5.308716	elf	-99
-5.308716	elope	-99
-4.530565	else	-99
-5.308716	eluding	-99
-5.007686	elusive	-99
-4.609746	elves	-99
-5.007686	elvis	-99
-4.831594	embarrassed	-99
-5.308716	embedded	-99
-4.194773	embrace	-99
-5.007686	embraces	-99
-4.609746	embracing	-99
-5.308716	emerge	-99
-5.308716	emergency	-99
-4.609746	emerges	-99
-5.007686	emerging	-99
-5.308716	emits	-99
-5.308716	emotional	-99
-4.831594	emotionally	-99
-5.308716	emotions	-99
-5.308716	employees	-99
-4.229535	empty	-99
-5.308716	emulating	-99
-5.308716	encased	-99
-5.308716	enchants	-99
-4.706656	enclosed	-99
-4.706656	enclosure	-99
-5.007686	encourage	-99
-4.831594	encouragement	-99
-5.308716	encourages	-99
-5.308716	encripted	-99
-5.308716	encroaching	-99
-3.966293	end	-99
-5.308716	endeavors	-99
-5.007686	ending	-99
-5.308716	endless	-99
-5.308716	endlessly	-99
-5.308716	endorsement	-99
-5.308716	endorsement-covered	-99
-4.609746	ends	-99
-5.007686	endurance	-99
-5.308716	endure	-99
-5.308716	enduring	-99
-5.308716	endzone	-99
-5.007686	enemies	-99
-4.706656	enemy	-99
-4.831594	energetic	-99
-4.706656	energetically	-99
-5.308716	energized	-99
-5.308716	energizer	-99
-4.267323	energy	-99
-5.308716	enforcement	-99
-4.463618	engage	-99
-4.706656	engaged	-99
-4.831594	engagement	-99
-4.831594	engine	-99
-5.308716	english	-99
-5.308716	engulf	-99
-5.308716	enhance	-99
-5.308716	enhancing	-99
-3.359326	enjoy	-99
-5.308716	enjoyable	-99
-5.007686	enjoyed	-99
-2.777237	enjoying	-99
-4.609746	enjoyment	-99
-3.552841	enjoys	-99
-5.308716	enlarged	-99
-4.706656	enough	-99
-5.308716	enoying	-99
-5.308716	ensues	-99
-5.007686	ensure	-99
-5.308716	ensuring	-99
-5.308716	entangles	-99
-5.007686	enter	-99
-5.007686	enters	-99
-4.609746	entertain	-99
-5.308716	entertainer	-99
-5.308716	entertainers	-99
-4.405626	entertaining	-99
-5.007686	enthusiasm	-99
-5.007686	enthusiastic	-99
-4.530565	enthusiastically	-99
-5.308716	enthusiasts	-99
-5.308716	enticing	-99
-5.308716	entitled	-99
-5.007686	entrance	-99
-5.308716	entries	-99
-4.706656	environment	-99
-5.308716	envisioning	-99
-5.308716	enymies	-99
-5.007686	equally	-99
-5.308716	equals	-99
-4.609746	equestrian	-99
-4.053443	equipment	-99
-5.308716	equipments	-99
-5.308716	equpiment	-99
-5.308716	ernestly	-99
-5.308716	eros	-99
-5.308716	escalator	-99
-5.308716	escalotor	-99
-3.861558	escape	-99
-5.308716	escaped	-99
-4.706656	escapes	-99
-4.053443	escaping	-99
-5.308716	escorted	-99
-5.308716	escorts	-99
-5.308716	esp	-99
-5.308716	establishment	-99
-5.308716	estranged	-99
-4.530565	et	-99
-5.308716	etc	-99
-5.308716	eternal	-99
-5.308716	eternally	-99
-5.308716	ethereal	-99
-5.308716	ethnic	-99
-5.007686	ets	-99
-5.308716	euipment	-99
-5.308716	euphoric	-99
-4.706656	european	-99
-5.308716	evade	-99
-5.308716	evaporating	-99
-5.308716	evel	-99
-5.308716	even	-99
-4.530565	evening	-99
-3.764648	event	-99
-5.308716	events	-99
-5.308716	eventual	-99
-4.463618	ever	-99
-4.706656	everest	-99
-5.308716	evergreen	-99
-4.463618	every	-99
-5.308716	everybody	-99
-4.229535	everyone	-99
-4.831594	everything	-99
-4.831594	everywhere	-99
-5.308716	eviction	-99
-4.405626	evil	-99
-5.308716	ex-husband	-99
-5.308716	ex-wife	-99
-5.308716	exaggerated	-99
-4.831594	examine	-99
-5.007686	examines	-99
-5.308716	examing	-99
-5.308716	examining	-99
-5.308716	examples	-99
-5.308716	excel	-99
-5.007686	except	-99
-5.308716	excercising	-99
-5.308716	excess	-99
-4.706656	exchange	-99
-4.831594	exchanging	-99
-3.560528	excited	-99
-3.803566	excitedly	-99
-3.831595	excitement	-99
-4.463618	exciting	-99
-5.308716	excitingly	-99
-5.308716	exclaim	-99
-5.308716	exclaims	-99
-5.007686	executes	-99
-4.354474	exercise	-99
-5.308716	exercises	-99
-4.831594	exercising	-99
-4.706656	exhausted	-99
-5.308716	exhaustion	-99
-5.007686	exhibit	-99
-4.831594	exhibiting	-99
-5.007686	exhibition	-99
-5.308716	exhilarated	-99
-5.007686	exhilaration	-99
-5.308716	exhilerated	-99
-5.308716	exhilirating	-99
-5.308716	exilarated	-99
-5.308716	existence	-99
-5.308716	exotic	-99
-5.308716	expands	-99
-5.308716	expanse	-99
-5.308716	expanses	-99
-5.308716	expect	-99
-5.308716	expectantly	-99
-5.308716	expects	-99
-5.308716	expedition	-99
-3.58444	experience	-99
-5.308716	experiences	-99
-4.104596	experiencing	-99
-4.609746	expert	-99
-5.308716	explanation	-99
-5.308716	exploration	-99
-4.354474	explore	-99
-5.007686	explores	-99
-4.308716	exploring	-99
-5.007686	explosion	-99
-5.308716	explosions	-99
-5.308716	explosive	-99
-5.308716	expo	-99
-5.308716	exposure	-99
-4.053443	express	-99
-4.831594	expresses	-99
-4.530565	expressing	-99
-5.308716	expression	-99
-4.831594	expressions	-99
-5.308716	extended	-99
-5.308716	extending	-99
-5.308716	extension	-99
-5.308716	extinct	-99
-5.308716	extinguish	-99
-5.308716	extinguishers	-99
-4.609746	extra	-99
-5.308716	extras	-99
-5.308716	extravagant	-99
-5.007686	extreme	-99
-4.706656	extremely	-99
-4.053443	eye	-99
-5.007686	eyebrows	-99
-5.308716	eyed	-99
-5.308716	eyeglasses	-99
-5.308716	eyepatch	-99
-3.717651	eyes	-99
-5.308716	f	-99
-4.405626	fabric	-99
-3.051037	face	-99
-5.308716	face-down	-99
-5.007686	facebook	-99
-5.007686	faced	-99
-5.308716	facefirst	-99
-5.308716	faceplant	-99
-3.803566	faces	-99
-5.308716	facial	-99
-5.007686	facility	-99
-4.194773	facing	-99
-5.308716	fading	-99
-5.308716	fadora	-99
-4.706656	fail	-99
-5.308716	failing	-99
-5.308716	faint	-99
-4.229535	fair	-99
-5.308716	fairground	-99
-5.308716	fairies	-99
-4.463618	fairy	-99
-5.308716	fairyland	-99
-5.308716	fairytale	-99
-5.007686	faith	-99
-5.007686	faithful	-99
-5.007686	faithfully	-99
-4.267323	fake	-99
-3.592713	fall	-99
-3.986497	fallen	-99
-3.655504	falling	-99
-3.777237	falls	-99
-5.007686	false	-99
-4.463618	fame	-99
-4.706656	families	-99
-3.349674	family	-99
-4.308716	famous	-99
-4.308716	fan	-99
-5.308716	fanatic	-99
-5.308716	fancily	-99
-4.229535	fancy	-99
-5.308716	fangs	-99
-5.308716	fanning	-99
-4.308716	fans	-99
-5.007686	fantastic	-99
-5.308716	fantasy	-99
-4.162588	far	-99
-5.308716	farewell	-99
-4.609746	farm	-99
-5.308716	farmer	-99
-5.308716	farmers	-99
-5.308716	farmland	-99
-4.405626	fart	-99
-5.007686	farted	-99
-5.007686	farther	-99
-4.029963	farting	-99
-4.308716	farts	-99
-4.530565	fashion	-99
-4.706656	fashioned	-99
-5.308716	fashionista	-99
-5.308716	fashions	-99
-5.308716	fasionable	-99
-3.601146	fast	-99
-5.308716	fastball	-99
-5.308716	fastens	-99
-4.706656	faster	-99
-5.007686	fastly	-99
-4.405626	fat	-99
-4.706656	fate	-99
-3.877352	father	-99
-5.007686	fathers	-99
-5.308716	fatigues	-99
-5.308716	fatty	-99
-5.007686	faucet	-99
-5.308716	favorable	-99
-3.695932	favorite	-99
-5.308716	favorites	-99
-5.308716	favourite	-99
-3.537864	fear	-99
-5.308716	fearful	-99
-5.007686	fearing	-99
-5.007686	fearless	-99
-4.831594	fearlessly	-99
-5.308716	fearlessness	-99
-4.267323	fears	-99
-4.831594	feast	-99
-5.308716	feasting	-99
-4.706656	feather	-99
-5.308716	feathered	-99
-4.463618	feathers	-99
-5.308716	feature	-99
-5.308716	features	-99
-5.308716	featuring	-99
-5.308716	fecthing	-99
-5.308716	fed	-99
-4.405626	feed	-99
-4.354474	feeding	-99
-3.910776	feel	-99
-3.384437	feeling	-99
-4.609746	feelings	-99
-4.194773	feels	-99
-3.846318	feet	-99
-5.308716	feigns	-99
-3.986497	fell	-99
-4.831594	fellow	-99
-3.803566	female	-99
-4.405626	females	-99
-5.308716	feminine	-99
-5.308716	feminists	-99
-3.354473	fence	-99
-4.162588	fenced	-99
-5.308716	fenced-in	-99
-4.831594	fencers	-99
-5.308716	fences	-99
-4.609746	fencing	-99
-5.308716	fending	-99
-4.831594	ferociously	-99
-5.007686	ferris	-99
-4.194773	festival	-99
-5.308716	festive	-99
-5.308716	festively	-99
-5.308716	festively-painted	-99
-4.706656	festivities	-99
-3.893743	fetch	-99
-5.308716	fetched	-99
-4.463618	fetches	-99
-4.267323	fetching	-99
-5.007686	fever	-99
-3.966293	few	-99
-5.007686	fiance	-99
-5.308716	fibbing	-99
-5.308716	fiber	-99
-2.701261	field	-99
-4.706656	fields	-99
-5.308716	fielf	-99
-5.007686	fierce	-99
-5.308716	fiercely	-99
-5.308716	fiery	-99
-5.308716	fifteen	-99
-5.308716	fifteenth	-99
-3.489172	fight	-99
-4.831594	fighter	-99
-4.831594	fighters	-99
-3.335588	fighting	-99
-4.530565	fights	-99
-4.609746	figure	-99
-5.308716	figures	-99
-5.308716	figurine	-99
-5.308716	figurines	-99
-5.308716	file	-99
-5.308716	filed	-99
-5.308716	fill	-99
-3.877352	filled	-99
-4.706656	film	-99
-5.007686	films	-99
-5.308716	filthy	-99
-5.308716	fin	-99
-4.405626	final	-99
-4.831594	finally	-99
-5.007686	finals	-99
-3.191445	find	-99
-4.078267	finding	-99
-4.354474	finds	-99
-5.308716	fine	-99
-5.308716	finery	-99
-4.831594	finger	-99
-4.267323	fingers	-99
-5.308716	fingers..	-99
-3.374218	finish	-99
-5.308716	finished	-99
-4.831594	finishes	-99
-4.609746	finishing	-99
-5.308716	finishline	-99
-5.308716	fins	-99
-3.665263	fire	-99
-5.007686	fired	-99
-4.831594	firefighter	-99
-5.308716	firefighters	-99
-5.007686	firefly	-99
-5.308716	fireman	-99
-5.308716	firemen	-99
-4.831594	fireplace	-99
-5.007686	fires	-99
-4.609746	firetruck	-99
-4.706656	fireworks	-99
-5.308716	firing	-99
-5.308716	firl	-99
-4.706656	firmly	-99
-3.422225	first	-99
-3.263393	fish	-99
-5.308716	fisher	-99
-4.706656	fisherman	-99
-4.053443	fishes	-99
-5.308716	fishiness	-99
-3.706656	fishing	-99
-5.308716	fishy	-99
-4.706656	fist	-99
-4.530565	fit	-99
-5.007686	fitness	-99
-3.609746	five	-99
-5.007686	fix	-99
-4.831594	fixing	-99
-5.308716	fixtures	-99
-3.817354	flag	-99
-5.308716	flaggers	-99
-5.308716	flagpoles	-99
-3.946988	flags	-99
-5.308716	flailing	-99
-5.308716	flamboyantly	-99
-5.308716	flame	-99
-4.706656	flames	-99
-4.609746	flaming	-99
-5.007686	flamingo	-99
-5.308716	flamingos	-99
-5.308716	flannel	-99
-5.007686	flapping	-99
-5.308716	flaps	-99
-5.308716	flares	-99
-5.308716	flash	-99
-5.007686	flashing	-99
-5.308716	flashlight	-99
-4.530565	flat	-99
-5.308716	flavored	-99
-5.308716	flaw	-99
-5.007686	flea	-99
-5.007686	fleas	-99
-5.308716	flee	-99
-5.308716	fleece	-99
-4.831594	fleeing	-99
-5.308716	flees	-99
-4.831594	flew	-99
-5.007686	flex	-99
-5.308716	flexes	-99
-5.308716	flexibility	-99
-5.308716	flexible	-99
-5.007686	flexing	-99
-5.308716	flickr	-99
-3.695932	flies	-99
-3.790202	flight	-99
-5.308716	flimsy	-99
-5.308716	flinging	-99
-5.308716	flings	-99
-3.966293	flip	-99
-5.308716	flip-flop	-99
-5.308716	flip-flops	-99
-5.007686	flipped	-99
-5.308716	flipper	-99
-5.308716	flippers	-99
-4.308716	flipping	-99
-4.463618	flips	-99
-5.308716	flirt	-99
-4.831594	flirting	-99
-5.308716	flirts	-99
-4.229535	float	-99
-4.530565	floaties	-99
-4.229535	floating	-99
-5.308716	floatlys	-99
-4.405626	floats	-99
-4.463618	flock	-99
-5.007686	flood	-99
-5.308716	flooded	-99
-5.308716	floods	-99
-3.706656	floor	-99
-5.308716	flooring	-99
-5.308716	floors	-99
-5.007686	flop	-99
-4.609746	floppy	-99
-5.007686	flops	-99
-4.706656	floral	-99
-5.308716	florescent	-99
-4.831594	florida	-99
-5.308716	flossing	-99
-5.308716	flotation	-99
-5.308716	flowed	-99
-3.946988	flower	-99
-4.706656	flowered	-99
-3.58444	flowers	-99
-4.706656	flowery	-99
-5.007686	flowing	-99
-5.308716	flown	-99
-5.308716	flows	-99
-4.053443	fluffy	-99
-5.007686	flute	-99
-3.354473	fly	-99
-5.308716	fly-fishing	-99
-3.384437	flying	-99
-5.007686	flys	-99
-5.308716	foal	-99
-4.463618	foam	-99
-5.308716	foamy	-99
-5.308716	focus	-99
-4.609746	focused	-99
-5.308716	focuses	-99
-5.308716	focusing	-99
-4.609746	fog	-99
-4.530565	foggy	-99
-5.007686	fold	-99
-4.609746	folded	-99
-5.007686	folding	-99
-4.706656	foliage	-99
-5.308716	folk	-99
-5.007686	folks	-99
-4.308716	follow	-99
-4.609746	followed	-99
-4.194773	following	-99
-4.229535	follows	-99
-5.308716	fondly	-99
-3.457458	food	-99
-5.308716	foolish	-99
-5.308716	fools	-99
-4.132625	foot	-99
-5.308716	footage	-99
-3.088608	football	-99
-5.308716	footballer	-99
-4.831594	footballers	-99
-5.308716	foothills	-99
-5.308716	footprint	-99
-5.308716	footprints	-99
-2.058296	for	-99
-5.308716	foraging	-99
-4.267323	force	-99
-5.308716	forearms	-99
-4.831594	foreground	-99
-5.308716	forehand	-99
-5.308716	foreign	-99
-3.509375	forest	-99
-5.007686	forested	-99
-5.308716	forests	-99
-4.463618	forever	-99
-4.609746	forget	-99
-4.831594	forgets	-99
-4.706656	forgetting	-99
-4.267323	forgot	-99
-5.308716	forks	-99
-4.405626	form	-99
-4.405626	formal	-99
-5.007686	formally	-99
-5.308716	formally-dressed	-99
-4.132625	formation	-99
-5.007686	formations	-99
-5.308716	formed	-99
-5.007686	forming	-99
-5.308716	forms	-99
-5.007686	formula	-99
-5.308716	fortess	-99
-5.308716	forth	-99
-4.706656	fortune	-99
-4.194773	forward	-99
-5.308716	foster	-99
-4.194773	found	-99
-3.457458	fountain	-99
-4.706656	fountains	-99
-3.068167	four	-99
-5.007686	four-wheeler	-99
-5.308716	fours	-99
-5.308716	fourth	-99
-5.308716	fourty	-99
-5.308716	fourwheeler	-99
-5.308716	fowl	-99
-5.308716	fox	-99
-5.308716	foxes	-99
-5.308716	foyer	-99
-5.308716	fragrance	-99
-4.609746	frame	-99
-4.831594	framed	-99
-5.007686	frames	-99
-5.308716	frankfurter	-99
-4.831594	frantically	-99
-5.308716	frappe	-99
-5.308716	freak	-99
-5.308716	freaked	-99
-5.308716	freddy	-99
-4.132625	free	-99
-5.308716	free-spirited	-99
-3.946988	freedom	-99
-4.706656	freely	-99
-5.308716	freestyle	-99
-5.007686	freezes	-99
-4.831594	freezing	-99
-4.706656	french	-99
-5.308716	fresbee	-99
-4.229535	fresh	-99
-5.308716	freshly	-99
-5.308716	friday	-99
-3.416621	friend	-99
-4.308716	friendly	-99
-3.233169	friends	-99
-3.717651	friendship	-99
-5.308716	fries	-99
-4.609746	frightened	-99
-5.308716	frint	-99
-3.255637	frisbee	-99
-5.308716	frivolity	-99
-5.308716	frizbee	-99
-5.308716	frizz	-99
-5.308716	frizzy	-99
-5.007686	fro	-99
-4.194773	frog	-99
-4.831594	frogs	-99
-5.308716	frolic	-99
-4.831594	frolicking	-99
-5.007686	frolicks	-99
-4.609746	frolics	-99
-5.308716	frollicing	-99
-2.68135	from	-99
-2.831595	front	-99
-5.308716	frontal	-99
-5.308716	frosting	-99
-5.007686	frosty	-99
-5.308716	frown	-99
-4.831594	frowning	-99
-5.308716	frowns	-99
-4.029963	frozen	-99
-4.354474	fruit	-99
-5.308716	fruits	-99
-5.308716	frustration	-99
-5.007686	fry	-99
-5.007686	frying	-99
-5.007686	fulfill	-99
-4.706656	fulfilling	-99
-3.275292	full	-99
-4.530565	fullest	-99
-5.308716	fully	-99
-3.28341	fun	-99
-5.308716	fun-loving	-99
-4.831594	function	-99
-5.308716	funded	-99
-5.308716	fundraising	-99
-4.706656	funky	-99
-5.308716	funnily	-99
-3.803566	funny	-99
-4.354474	fur	-99
-5.308716	furious	-99
-5.007686	furniture	-99
-5.308716	furred	-99
-4.078267	furry	-99
-5.308716	further	-99
-5.308716	fuss	-99
-5.308716	fussing	-99
-5.308716	fustrated	-99
-3.877352	future	-99
-5.308716	futures	-99
-5.007686	fuzzy	-99
-5.308716	gaggle	-99
-4.405626	gain	-99
-5.007686	gained	-99
-5.308716	gains	-99
-4.609746	gallery	-99
-4.530565	galloping	-99
-5.007686	gallops	-99
-5.308716	gambling	-99
-2.930318	game	-99
-4.530565	games	-99
-5.308716	gandhi	-99
-5.308716	gang	-99
-5.308716	gangplank	-99
-5.308716	gap	-99
-5.308716	gaping	-99
-5.308716	garage	-99
-4.706656	garb	-99
-4.609746	garbage	-99
-4.053443	garden	-99
-5.308716	garlic	-99
-5.308716	garments	-99
-5.007686	garter	-99
-4.463618	gas	-99
-5.308716	gases	-99
-5.308716	gasp	-99
-5.308716	gasps	-99
-4.354474	gate	-99
-5.308716	gates	-99
-5.308716	gateway	-99
-3.831595	gather	-99
-4.053443	gathered	-99
-4.463618	gathering	-99
-5.007686	gathers	-99
-5.308716	gators	-99
-5.308716	gaurd	-99
-5.308716	gauze	-99
-4.706656	gave	-99
-5.007686	gay	-99
-5.308716	gaze	-99
-4.609746	gazes	-99
-4.530565	gazing	-99
-3.764648	gear	-99
-5.308716	geater	-99
-5.308716	geeks	-99
-4.308716	geese	-99
-5.308716	geisha	-99
-5.308716	gel	-99
-5.308716	generate	-99
-5.308716	generates	-99
-5.308716	generations	-99
-5.308716	genie	-99
-5.308716	genies	-99
-5.308716	genocide	-99
-5.308716	gentle	-99
-4.354474	gentleman	-99
-5.007686	gentlemen	-99
-4.706656	gently	-99
-5.308716	geocery	-99
-5.308716	geological	-99
-5.308716	georgeously	-99
-5.308716	georgous	-99
-5.308716	ger-maid	-99
-3.706656	german	-99
-5.308716	germs	-99
-5.308716	gestering	-99
-4.706656	gesture	-99
-4.831594	gestures	-99
-3.009863	get	-99
-5.007686	get-together	-99
-3.502536	gets	-99
-3.411089	getting	-99
-5.308716	getway	-99
-5.007686	geyser	-99
-4.609746	ghost	-99
-4.831594	ghosts	-99
-3.928505	giant	-99
-5.007686	giddy	-99
-4.029963	gift	-99
-5.308716	gifted	-99
-4.609746	gifts	-99
-5.308716	giggle	-99
-5.308716	giggles	-99
-4.354474	giggling	-99
-5.007686	gigolo	-99
-5.308716	gild	-99
-5.308716	giligan	-99
-5.308716	ginger	-99
-5.308716	gir	-99
-5.308716	giraffe	-99
-5.007686	giraffes	-99
-5.308716	girder	-99
-2.276904	girl	-99
-5.308716	girld	-99
-3.482641	girlfriend	-99
-4.706656	girlfriends	-99
-2.822994	girls	-99
-3.803566	give	-99
-4.706656	given	-99
-4.029963	gives	-99
-3.777237	giving	-99
-5.308716	glacial	-99
-5.007686	glacier	-99
-4.354474	glad	-99
-5.308716	gladiators	-99
-5.308716	glamorous	-99
-5.308716	glances	-99
-5.308716	glare	-99
-4.078267	glass	-99
-3.627475	glasses	-99
-5.308716	glassy	-99
-5.308716	gleaming	-99
-4.530565	glee	-99
-5.308716	gleeful	-99
-4.354474	gleefully	-99
-5.007686	glider	-99
-4.706656	glides	-99
-4.405626	gliding	-99
-4.831594	glimps	-99
-5.308716	glimpse	-99
-5.308716	glistening	-99
-5.007686	glorious	-99
-3.817354	glory	-99
-5.007686	glove	-99
-5.308716	gloved	-99
-4.530565	gloves	-99
-5.007686	glow	-99
-5.308716	glucose	-99
-4.831594	glued	-99
-5.308716	glumily	-99
-5.007686	gnaws	-99
-5.308716	gnome	-99
-5.308716	gnomes	-99
-3.222356	go	-99
-3.609746	goal	-99
-4.267323	goalie	-99
-5.308716	goaling	-99
-5.308716	goalkeeper	-99
-4.706656	goals	-99
-5.308716	goaltender	-99
-4.354474	goat	-99
-4.530565	goats	-99
-5.308716	gocart	-99
-4.463618	god	-99
-5.308716	goddess	-99
-5.308716	gods	-99
-5.308716	goers	-99
-3.817354	goes	-99
-4.053443	goggles	-99
-3.330992	going	-99
-3.665263	gold	-99
-5.308716	gold-colored	-99
-3.817354	golden	-99
-5.308716	goled	-99
-4.609746	golf	-99
-5.308716	gon	-99
-5.007686	gondola	-99
-4.831594	gone	-99
-5.308716	gonzaga	-99
-3.877352	good	-99
-5.308716	goodbye	-99
-5.007686	goods	-99
-5.308716	goody	-99
-5.007686	goofing	-99
-4.706656	goofy	-99
-5.308716	googles	-99
-5.308716	goonies	-99
-4.831594	goose	-99
-5.308716	gopher	-99
-5.308716	gorge	-99
-4.706656	gorgeous	-99
-5.308716	gorilla	-99
-5.308716	gossip	-99
-5.308716	gossiping	-99
-3.986497	got	-99
-5.007686	gothic	-99
-5.308716	gothically	-99
-5.308716	gotten	-99
-5.308716	goucho	-99
-5.308716	government	-99
-5.308716	governors	-99
-5.308716	gown	-99
-4.463618	grab	-99
-5.308716	grabbed	-99
-4.609746	grabbing	-99
-4.530565	grabs	-99
-4.831594	grace	-99
-5.007686	graceful	-99
-5.308716	gracefull	-99
-4.530565	gracefully	-99
-5.308716	gradient	-99
-5.308716	gradual	-99
-4.831594	graduation	-99
-5.308716	graffit	-99
-4.007686	graffiti	-99
-5.308716	graffiti-covered	-99
-5.007686	graffiti-filled	-99
-5.308716	graffiti-heavy	-99
-4.831594	graffitied	-99
-5.308716	grain	-99
-4.831594	grand	-99
-5.308716	grandad	-99
-5.308716	grandaughter	-99
-5.308716	grandbaby	-99
-5.308716	granddaughter	-99
-5.308716	grandfather	-99
-5.308716	grandkids	-99
-5.007686	grandma	-99
-4.463618	grandmother	-99
-5.308716	grandpa	-99
-5.308716	granma	-99
-5.308716	granted	-99
-5.308716	grapes	-99
-5.308716	grasp	-99
-5.007686	grasping	-99
-4.831594	grasps	-99
-2.594386	grass	-99
-4.831594	grasses	-99
-5.308716	grasshoppers	-99
-5.308716	grasshopppers	-99
-3.181611	grassy	-99
-5.308716	grateful	-99
-5.308716	gratefully	-99
-5.308716	grating	-99
-5.308716	gratitude	-99
-4.162588	gravel	-99
-4.706656	gravity	-99
-5.308716	gravy	-99
-3.928505	gray	-99
-5.308716	gray-haired	-99
-5.308716	grayhound	-99
-3.655504	great	-99
-4.609746	greatest	-99
-5.007686	greatly	-99
-4.308716	greatness	-99
-2.837424	green	-99
-5.308716	greenbay	-99
-5.308716	greenpeace	-99
-4.354474	greet	-99
-5.308716	greeted	-99
-5.308716	greeting	-99
-5.007686	greets	-99
-5.007686	gremlins	-99
-4.831594	grew	-99
-3.560528	grey	-99
-5.308716	grey-haired	-99
-5.308716	grey-suited	-99
-3.817354	greyhound	-99
-4.007686	greyhounds	-99
-5.308716	greyhouse	-99
-5.308716	greyish	-99
-4.831594	grilling	-99
-5.308716	grimacing	-99
-4.609746	grin	-99
-4.831594	grind	-99
-4.229535	grinding	-99
-4.308716	grinds	-99
-4.831594	grinning	-99
-4.405626	grins	-99
-5.308716	grip	-99
-5.308716	grips	-99
-4.530565	grocery	-99
-5.308716	groin	-99
-4.354474	groom	-99
-5.308716	gross	-99
-5.007686	groucho	-99
-5.308716	grouchy	-99
-3.222356	ground	-99
-5.308716	grounded	-99
-5.308716	groundhog	-99
-5.007686	grounds	-99
-2.70449	group	-99
-5.308716	groups	-99
-5.308716	grove	-99
-4.609746	grow	-99
-5.308716	growing	-99
-4.609746	growling	-99
-5.308716	growls	-99
-4.530565	grown	-99
-5.007686	grows	-99
-5.007686	growth	-99
-5.308716	grumpy	-99
-5.308716	gu	-99
-4.463618	guard	-99
-5.308716	guarded	-99
-4.609746	guardian	-99
-5.308716	guardians	-99
-4.831594	guarding	-99
-5.308716	guards	-99
-5.308716	guest	-99
-5.308716	guests	-99
-5.007686	guide	-99
-5.308716	guides	-99
-5.007686	guiding	-99
-5.308716	guilty	-99
-3.601146	guitar	-99
-5.007686	guitarist	-99
-5.308716	guitarists	-99
-4.530565	guitars	-99
-5.308716	gull	-99
-5.308716	gulls	-99
-5.308716	gulp	-99
-5.007686	gum	-99
-5.007686	gump	-99
-5.007686	gums	-99
-4.104596	gun	-99
-4.831594	guns	-99
-5.308716	gushing	-99
-5.308716	gust	-99
-3.445393	guy	-99
-3.877352	guys	-99
-4.029963	gym	-99
-5.007686	gymnasium	-99
-4.609746	gymnast	-99
-4.831594	gymnastics	-99
-5.308716	gymnist	-99
-5.308716	ha	-99
-4.162588	had	-99
-5.308716	haiku	-99
-5.308716	haikus	-99
-5.308716	hailstorm	-99
-3.263393	hair	-99
-5.308716	hairbows	-99
-5.308716	haircut	-99
-5.007686	hairdo	-99
-5.308716	hairdresser	-99
-3.893743	haired	-99
-5.007686	hairs	-99
-5.308716	hairstyle	-99
-4.831594	hairy	-99
-5.308716	haki	-99
-4.308716	half	-99
-5.308716	half-completed	-99
-4.831594	half-pipe	-99
-5.308716	half-way	-99
-5.308716	halfpipe	-99
-5.308716	halftime	-99
-5.007686	halfway	-99
-4.609746	hall	-99
-4.267323	halloween	-99
-5.308716	hallucination	-99
-4.530565	hallway	-99
-5.007686	halter	-99
-5.308716	ham	-99
-4.706656	hamburger	-99
-4.831594	hamburgers	-99
-5.308716	hammer	-99
-5.308716	hamster	-99
-3.489172	hand	-99
-5.308716	hand-in-hand	-99
-5.007686	handbag	-99
-5.007686	handbags	-99
-5.308716	handball	-99
-4.831594	handed	-99
-4.831594	handgun	-99
-5.308716	handheld	-99
-5.308716	handicapped	-99
-5.308716	handle	-99
-4.831594	handlebars	-99
-4.609746	handles	-99
-5.308716	handling	-99
-5.308716	handout	-99
-4.104596	handrail	-99
-5.308716	handrails	-99
-3.530565	hands	-99
-4.405626	handsome	-99
-5.308716	handsomely	-99
-4.229535	handstand	-99
-5.308716	handwritten	-99
-4.104596	hang	-99
-5.308716	hang-glider	-99
-5.308716	hanged	-99
-3.627475	hanging	-99
-5.308716	hanglider	-99
-5.308716	hangover	-99
-4.078267	hangs	-99
-5.007686	hapily	-99
-5.007686	happen	-99
-5.308716	happening	-99
-5.007686	happens	-99
-5.308716	happier	-99
-3.15338	happily	-99
-3.777237	happiness	-99
-3.384437	happy	-99
-5.308716	harassment	-99
-5.308716	harbor	-99
-3.928505	hard	-99
-5.007686	hard-hat	-99
-5.308716	hard-hats	-99
-4.831594	hardhat	-99
-5.308716	hardscape	-99
-5.308716	hardships	-99
-4.831594	hardwood	-99
-5.308716	hardwork	-99
-5.007686	harmful	-99
-5.007686	harmoniously	-99
-5.308716	harmonize	-99
-4.831594	harmony	-99
-4.104596	harness	-99
-4.706656	harnesses	-99
-5.308716	harsh	-99
-4.831594	harvested	-99
-3.083407	has	-99
-5.308716	hashtag	-99
-3.138454	hat	-99
-4.831594	hate	-99
-5.007686	hates	-99
-3.740514	hats	-99
-3.427902	have	-99
-3.394902	having	-99
-5.308716	hawaii	-99
-5.308716	hawaiian	-99
-4.831594	hawk	-99
-4.104596	hay	-99
-5.308716	haystack	-99
-5.308716	hazardous	-99
-5.308716	hazy	-99
-2.770897	he	-99
-3.208345	head	-99
-5.308716	head-on	-99
-5.308716	headache	-99
-4.162588	headband	-99
-5.308716	headbands	-99
-5.007686	headdress	-99
-5.308716	headdresses	-99
-4.463618	headed	-99
-4.530565	headfirst	-99
-5.308716	headgear	-99
-4.267323	heading	-99
-5.007686	headless	-99
-5.308716	headlight	-99
-5.007686	headlights	-99
-5.007686	headlong	-99
-5.308716	headphone	-99
-4.194773	headphones	-99
-5.308716	headresses	-99
-3.986497	heads	-99
-4.405626	headscarf	-99
-5.308716	headscarfs	-99
-4.831594	headset	-99
-5.308716	healing	-99
-5.007686	health	-99
-4.831594	healthy	-99
-5.308716	heap	-99
-4.405626	hear	-99
-4.706656	heard	-99
-4.706656	hearing	-99
-5.308716	hears	-99
-4.194773	heart	-99
-5.308716	hearted	-99
-4.463618	hearts	-99
-5.308716	heartworm	-99
-4.267323	heat	-99
-5.007686	heaven	-99
-5.308716	heavens	-99
-5.007686	heavily	-99
-4.132625	heavy	-99
-5.308716	heavyset	-99
-5.308716	heck	-99
-5.308716	hectic	-99
-4.530565	heels	-99
-4.162588	height	-99
-4.162588	heights	-99
-5.308716	heir	-99
-4.162588	held	-99
-4.706656	helicopter	-99
-5.308716	hello	-99
-5.308716	hells	-99
-5.308716	helm	-99
-3.411089	helmet	-99
-5.007686	helmeted	-99
-4.104596	helmets	-99
-3.966293	help	-99
-4.706656	helped	-99
-5.007686	helpful	-99
-4.229535	helping	-99
-4.463618	helps	-99
-5.308716	hem	-99
-5.308716	hemen	-99
-5.007686	henna	-99
-5.308716	hens	-99
-2.467983	her	-99
-5.308716	hercules	-99
-4.831594	herd	-99
-4.530565	herding	-99
-5.007686	here	-99
-5.007686	heritage	-99
-5.308716	herman	-99
-5.308716	hernia	-99
-4.194773	hero	-99
-4.831594	heroes	-99
-5.007686	heroic	-99
-5.007686	heroically	-99
-5.308716	heron	-99
-5.007686	heros	-99
-4.831594	hers	-99
-3.946988	herself	-99
-5.308716	herselt	-99
-5.308716	hesitantly	-99
-4.831594	hey	-99
-5.007686	hi	-99
-5.308716	hi-viz	-99
-5.007686	hid	-99
-4.609746	hidden	-99
-4.132625	hide	-99
-5.007686	hideout	-99
-4.831594	hides	-99
-4.029963	hiding	-99
-5.308716	hieroglyphic	-99
-3.029962	high	-99
-5.308716	high-five	-99
-5.308716	high-fives	-99
-5.308716	high-fiving	-99
-5.308716	high-flying	-99
-5.308716	high-rise	-99
-4.405626	higher	-99
-5.007686	highest	-99
-5.007686	highfive	-99
-5.308716	highland	-99
-5.308716	highlight	-99
-5.308716	highlighted	-99
-5.007686	highly	-99
-4.104596	highs	-99
-4.706656	highway	-99
-4.162588	hike	-99
-3.986497	hiker	-99
-4.078267	hikers	-99
-4.463618	hikes	-99
-4.104596	hiking	-99
-5.007686	hilariously	-99
-3.110059	hill	-99
-5.308716	hillbilly	-99
-4.463618	hills	-99
-4.530565	hillside	-99
-5.308716	hilly	-99
-3.023159	him	-99
-3.803566	himself	-99
-4.354474	hind	-99
-5.308716	hindlegs	-99
-4.831594	hip	-99
-5.308716	hippies	-99
-5.007686	hips	-99
-5.308716	hire	-99
-1.993796	his	-99
-5.308716	historic	-99
-4.831594	historical	-99
-5.007686	history	-99
-3.695932	hit	-99
-5.308716	hitman	-99
-3.946988	hits	-99
-5.007686	hitter	-99
-4.104596	hitting	-99
-5.308716	hobbit	-99
-3.523386	hockey	-99
-5.308716	hocky	-99
-5.308716	hodling	-99
-4.831594	hog	-99
-5.308716	hokie	-99
-3.627475	hold	-99
-2.779799	holding	-99
-5.308716	holdings	-99
-3.201506	holds	-99
-3.966293	hole	-99
-4.831594	holes	-99
-4.463618	holiday	-99
-4.706656	holidays	-99
-5.308716	holing	-99
-5.308716	hollywood	-99
-5.308716	hols	-99
-3.389638	home	-99
-5.308716	home-made	-99
-4.405626	homeless	-99
-5.007686	homemade	-99
-4.831594	homerun	-99
-4.831594	homes	-99
-4.706656	homework	-99
-5.308716	honest	-99
-5.007686	honey	-99
-4.354474	honeymoon	-99
-5.308716	honor	-99
-5.308716	honoring	-99
-5.308716	honors	-99
-5.308716	honoured	-99
-5.007686	hood	-99
-4.463618	hooded	-99
-4.463618	hoodie	-99
-5.308716	hoof	-99
-4.831594	hook	-99
-5.308716	hooked	-99
-3.986497	hoop	-99
-5.007686	hooping	-99
-4.267323	hoops	-99
-5.308716	hooray	-99
-5.007686	hoot	-99
-5.308716	hooves	-99
-5.007686	hop	-99
-4.194773	hope	-99
-5.308716	hopeful	-99
-4.831594	hopefully	-99
-5.308716	hopeing	-99
-5.308716	hopeless	-99
-3.803566	hopes	-99
-3.201506	hoping	-99
-5.007686	hopper	-99
-4.530565	hopping	-99
-5.308716	hoppingly	-99
-5.308716	hops	-99
-4.706656	hopscotch	-99
-5.007686	horizon	-99
-5.308716	horizons	-99
-5.308716	hormony	-99
-5.007686	horn	-99
-4.831594	horns	-99
-5.308716	horny	-99
-5.308716	horrible	-99
-5.308716	horrific	-99
-5.308716	horror	-99
-3.369197	horse	-99
-4.530565	horseback	-99
-5.308716	horserace	-99
-3.752414	horses	-99
-5.308716	horseshoe	-99
-4.831594	horseshoes	-99
-4.267323	hose	-99
-4.609746	hospital	-99
-5.308716	host	-99
-3.655504	hot	-99
-5.308716	hotdog	-99
-5.308716	hotdogs	-99
-4.609746	hotel	-99
-4.706656	hound	-99
-4.530565	hours	-99
-3.516324	house	-99
-5.007686	housekeeping	-99
-4.831594	houses	-99
-5.308716	housing	-99
-5.308716	hover	-99
-5.308716	hovercrafts	-99
-5.007686	hovering	-99
-5.308716	hovers	-99
-3.523386	how	-99
-4.831594	howling	-99
-5.007686	hree	-99
-5.308716	hubbies	-99
-5.308716	hubby	-99
-4.354474	huddle	-99
-5.007686	huddled	-99
-5.308716	huddling	-99
-4.078267	hug	-99
-3.777237	huge	-99
-3.893743	hugging	-99
-5.007686	hugs	-99
-4.104596	hula	-99
-4.831594	hula-hoop	-99
-4.831594	hula-hoops	-99
-4.229535	human	-99
-4.831594	humans	-99
-5.308716	humid	-99
-5.308716	humidity	-99
-5.007686	hummer	-99
-5.308716	humming	-99
-5.308716	hummingbirds	-99
-5.308716	humor	-99
-5.308716	humorous	-99
-5.308716	hump	-99
-5.308716	humping	-99
-5.308716	humungous	-99
-5.308716	hunches	-99
-5.308716	hunching	-99
-5.308716	hundred	-99
-4.706656	hundreds	-99
-5.007686	hung	-99
-5.308716	hungary	-99
-5.007686	hunger	-99
-5.007686	hungrily	-99
-5.308716	hungriness	-99
-4.194773	hungry	-99
-5.308716	hunks	-99
-4.706656	hunt	-99
-4.831594	hunter	-99
-5.308716	hunters	-99
-4.706656	hunting	-99
-3.740514	hurdle	-99
-4.354474	hurdles	-99
-5.308716	hurray	-99
-5.308716	hurricane	-99
-4.706656	hurry	-99
-5.308716	hurrying	-99
-4.831594	hurt	-99
-5.308716	hurtful	-99
-5.007686	hurting	-99
-5.308716	hurts	-99
-4.194773	husband	-99
-5.308716	husk	-99
-4.831594	huskies	-99
-4.706656	husky	-99
-5.308716	husky-like	-99
-5.308716	hustle	-99
-5.308716	hustling	-99
-4.405626	hut	-99
-5.308716	huts	-99
-4.706656	hydrant	-99
-5.308716	hyenas	-99
-5.308716	hygiene	-99
-5.308716	hyperventilating	-99
-5.308716	hypnotize	-99
-5.308716	hysterically	-99
-3.966293	i	-99
-3.379297	ice	-99
-5.007686	icecream	-99
-4.831594	iced	-99
-5.007686	icicle	-99
-4.229535	icy	-99
-5.007686	id	-99
-5.007686	idea	-99
-4.706656	ideas	-99
-4.706656	identical	-99
-5.308716	identifier	-99
-5.308716	identifies	-99
-5.308716	identities	-99
-4.831594	idiot	-99
-4.831594	idiots	-99
-5.308716	iditarod	-99
-5.308716	idling	-99
-5.308716	idly	-99
-5.308716	idol	-99
-3.717651	if	-99
-5.007686	igloo	-99
-5.308716	ignoble	-99
-5.308716	ignore	-99
-5.308716	ignored	-99
-4.609746	ignoring	-99
-5.308716	iguana	-99
-5.308716	iguanas	-99
-5.007686	illuminated	-99
-5.308716	illusions	-99
-5.308716	illustrated	-99
-5.308716	illustration	-99
-4.706656	image	-99
-5.308716	image_url_0	-99
-5.007686	images	-99
-4.530565	imaginary	-99
-5.007686	imagine	-99
-4.831594	imaging	-99
-4.354474	imagining	-99
-5.308716	imitate	-99
-5.007686	imitating	-99
-5.308716	immense	-99
-5.308716	immersed	-99
-5.007686	impassioned	-99
-5.007686	impatient	-99
-5.007686	impatiently	-99
-5.308716	impeach	-99
-5.308716	impeding	-99
-5.308716	impersonator	-99
-4.831594	importance	-99
-4.706656	important	-99
-5.308716	importantly	-99
-3.124024	impress	-99
-4.706656	impressed	-99
-4.706656	impresses	-99
-3.877352	impressing	-99
-5.007686	impression	-99
-5.308716	impressioning	-99
-5.308716	impressively	-99
-4.354474	improve	-99
-5.308716	improvement	-99
-5.308716	improvements	-99
-5.007686	improving	-99
-1.535734	in	-99
-5.308716	in-line	-99
-5.308716	inadequate	-99
-5.308716	inappropriately	-99
-4.831594	incense	-99
-4.706656	incline	-99
-4.609746	including	-99
-5.308716	incognito	-99
-4.831594	incoming	-99
-5.308716	inconsiderate	-99
-5.308716	increasing	-99
-5.007686	incredible	-99
-4.831594	independence	-99
-4.831594	india	-99
-4.530565	indian	-99
-5.007686	indians	-99
-5.308716	indicate	-99
-5.308716	indicates	-99
-5.007686	indigestion	-99
-5.308716	indigo	-99
-5.007686	individual	-99
-5.308716	individualism	-99
-4.706656	individuals	-99
-4.132625	indoor	-99
-4.078267	indoors	-99
-5.308716	industrial	-99
-5.308716	inexhaustibly	-99
-5.308716	infant	-99
-5.308716	infected	-99
-5.308716	infested	-99
-5.308716	infinite	-99
-4.053443	inflatable	-99
-5.308716	inflatbale	-99
-4.831594	inflated	-99
-5.308716	informal	-99
-5.308716	information	-99
-5.007686	infront	-99
-5.308716	infused	-99
-5.308716	inground	-99
-5.308716	inhales	-99
-4.831594	injured	-99
-5.308716	injuries	-99
-5.308716	injury	-99
-5.308716	injustices	-99
-5.308716	ink	-99
-4.530565	inline	-99
-5.308716	inline-skates	-99
-4.706656	inner	-99
-4.405626	innertube	-99
-5.308716	inning	-99
-4.530565	innocence	-99
-4.831594	innocent	-99
-5.007686	innovative	-99
-5.308716	inpires	-99
-5.308716	inquisitive	-99
-5.308716	insane	-99
-5.308716	insect	-99
-5.308716	inseparable	-99
-3.58444	inside	-99
-4.706656	inspecting	-99
-4.831594	inspects	-99
-5.308716	inspired	-99
-5.308716	inspires	-99
-5.007686	inspiring	-99
-5.308716	instantly	-99
-4.530565	instead	-99
-5.308716	instean	-99
-5.007686	instructions	-99
-5.308716	instructor	-99
-4.706656	instrument	-99
-4.194773	instruments	-99
-5.308716	insulted	-99
-4.706656	insurance	-99
-4.831594	int	-99
-5.308716	intends	-99
-4.831594	intense	-99
-5.308716	intensely	-99
-5.308716	intent	-99
-4.706656	intently	-99
-5.308716	interact	-99
-4.831594	interacting	-99
-5.308716	interaction	-99
-5.308716	interchangeable	-99
-4.609746	interest	-99
-4.463618	interesting	-99
-5.308716	interestingly	-99
-5.308716	interests	-99
-5.308716	intergalactic	-99
-5.308716	international	-99
-4.831594	internet	-99
-5.308716	interrupts	-99
-4.530565	intersection	-99
-4.706656	interview	-99
-4.831594	interviews	-99
-5.007686	intimate	-99
-5.308716	intimidated	-99
-2.708833	into	-99
-5.308716	intricate	-99
-5.308716	introduced	-99
-5.308716	invaders	-99
-5.007686	invading	-99
-5.308716	invention	-99
-5.007686	inverted	-99
-5.308716	invested	-99
-5.308716	investigation	-99
-4.162588	invisible	-99
-4.831594	involved	-99
-5.308716	involving	-99
-5.308716	inward	-99
-5.308716	ion	-99
-5.308716	iphone	-99
-5.007686	ipod	-99
-5.308716	ipods	-99
-5.308716	iridescent	-99
-5.007686	irish	-99
-5.007686	iron	-99
-5.308716	irritating	-99
-1.857237	is	-99
-5.308716	isis	-99
-4.463618	island	-99
-5.308716	isnt	-99
-5.308716	isolated	-99
-5.308716	israel	-99
-5.308716	issued	-99
-2.737007	it	-99
-5.308716	italian	-99
-5.308716	italy	-99
-5.308716	itching	-99
-5.007686	itchy	-99
-4.463618	item	-99
-4.530565	items	-99
-5.308716	ithat	-99
-2.861558	its	-99
-4.308716	itself	-99
-5.308716	ivy	-99
-4.354474	jack	-99
-5.308716	jack-o-lantern	-99
-5.308716	jackalopes	-99
-5.308716	jackelopes	-99
-3.124024	jacket	-99
-4.132625	jackets	-99
-5.308716	jackpot	-99
-5.308716	jackrabbits	-99
-4.706656	jackson	-99
-5.308716	jagged	-99
-5.308716	jaket	-99
-4.831594	jam	-99
-5.308716	jams	-99
-5.308716	jane	-99
-4.609746	japanese	-99
-4.831594	jar	-99
-5.308716	jasmine	-99
-5.308716	jaunty	-99
-5.007686	jaws	-99
-5.308716	jay	-99
-4.831594	jealous	-99
-4.463618	jean	-99
-3.893743	jeans	-99
-4.267323	jeep	-99
-5.007686	jeeps	-99
-5.308716	jellyfish	-99
-5.308716	jerkin	-99
-5.308716	jerry	-99
-3.790202	jersey	-99
-4.609746	jerseys	-99
-5.007686	jesus	-99
-4.609746	jet	-99
-5.308716	jet-	-99
-5.308716	jets	-99
-4.609746	jewelry	-99
-5.308716	jewish	-99
-5.308716	jig	-99
-5.308716	jmping	-99
-4.463618	job	-99
-5.308716	jobs	-99
-4.530565	jockey	-99
-4.354474	jockeys	-99
-5.308716	jog	-99
-5.007686	jogger	-99
-5.007686	joggers	-99
-4.162588	jogging	-99
-4.463618	jogs	-99
-4.831594	john	-99
-5.308716	johns	-99
-4.194773	join	-99
-5.308716	joined	-99
-5.308716	joining	-99
-5.308716	joins	-99
-4.706656	joke	-99
-5.308716	joker	-99
-5.007686	jokes	-99
-5.007686	joking	-99
-4.831594	jolly	-99
-5.308716	jordan	-99
-4.609746	journey	-99
-5.308716	journeying	-99
-5.308716	joust	-99
-3.304394	joy	-99
-4.463618	joyful	-99
-3.910776	joyfully	-99
-4.706656	joyous	-99
-5.007686	joyously	-99
-4.229535	joys	-99
-5.308716	jubilant	-99
-5.308716	jubilantly	-99
-5.308716	judge	-99
-4.530565	judges	-99
-5.007686	jug	-99
-5.007686	juggle	-99
-5.308716	juggler	-99
-5.007686	juggles	-99
-4.706656	juggling	-99
-4.609746	juice	-99
-5.308716	juices	-99
-4.831594	juicy	-99
-5.308716	jukebox	-99
-5.308716	july	-99
-5.308716	juming	-99
-3.124024	jump	-99
-4.267323	jumped	-99
-4.609746	jumper	-99
-2.647851	jumping	-99
-5.308716	jumpropes	-99
-2.732375	jumps	-99
-5.308716	jumpsuit	-99
-4.194773	jungle	-99
-5.308716	jungle-gym	-99
-5.308716	junior	-99
-5.308716	junk	-99
-4.831594	jupiter	-99
-3.502536	just	-99
-5.308716	kali	-99
-4.530565	kangaroo	-99
-4.162588	karate	-99
-5.007686	kart	-99
-5.308716	kawaski	-99
-3.893743	kayak	-99
-4.530565	kayaker	-99
-5.007686	kayakers	-99
-4.194773	kayaking	-99
-4.831594	kayaks	-99
-3.986497	keep	-99
-5.308716	keep-away	-99
-5.308716	keeper	-99
-4.354474	keeping	-99
-4.405626	keeps	-99
-5.007686	kennel	-99
-5.308716	ketchup	-99
-4.609746	key	-99
-5.007686	keyboard	-99
-5.308716	keys	-99
-4.831594	khaki	-99
-5.308716	kibble	-99
-5.308716	kibbles	-99
-3.790202	kick	-99
-4.831594	kicked	-99
-5.308716	kicker	-99
-5.308716	kickflip	-99
-3.946988	kicking	-99
-3.986497	kicks	-99
-5.308716	kickstart	-99
-3.476207	kid	-99
-5.308716	kid-sized	-99
-4.463618	kiddie	-99
-5.007686	kiddy	-99
-5.308716	kidnap	-99
-5.308716	kidnapper	-99
-3.215294	kids	-99
-5.308716	kildare	-99
-5.007686	kill	-99
-5.308716	killed	-99
-4.831594	killing	-99
-5.007686	kilt	-99
-5.308716	kimono	-99
-5.308716	kind	-99
-5.308716	kindergarten	-99
-5.308716	kinds	-99
-4.706656	king	-99
-5.308716	kingfisher	-99
-5.308716	kiosk	-99
-3.966293	kiss	-99
-4.229535	kisses	-99
-3.946988	kissing	-99
-5.308716	kit	-99
-4.078267	kitchen	-99
-4.104596	kite	-99
-4.354474	kites	-99
-5.007686	kitten	-99
-5.007686	kitty	-99
-5.308716	klingons	-99
-4.831594	knee	-99
-4.405626	kneeling	-99
-4.706656	kneels	-99
-4.609746	knees	-99
-5.308716	knievel	-99
-5.007686	knife	-99
-5.308716	knight	-99
-5.007686	knit	-99
-4.831594	knitted	-99
-5.308716	knives	-99
-5.007686	knock	-99
-5.308716	knocked	-99
-5.007686	knocking	-99
-5.308716	knocks	-99
-5.308716	knots	-99
-4.308716	know	-99
-4.463618	knowing	-99
-5.007686	knowingly	-99
-5.308716	knowledge	-99
-4.354474	knows	-99
-5.308716	knuckle	-99
-5.007686	kong	-99
-5.308716	konnevel	-99
-5.308716	kool-aid	-99
-5.308716	korea	-99
-5.308716	krueger	-99
-5.308716	kryptonite	-99
-4.308716	lab	-99
-5.308716	laboring	-99
-5.308716	labradoodle	-99
-4.609746	labrador	-99
-4.831594	labs	-99
-5.308716	lacross	-99
-4.706656	lacrosse	-99
-5.308716	lad	-99
-4.354474	ladder	-99
-4.007686	ladies	-99
-5.308716	ladle	-99
-5.308716	ladles	-99
-3.469867	lady	-99
-5.007686	ladybird	-99
-5.308716	ladybugs	-99
-5.308716	lagoon	-99
-5.308716	laid	-99
-3.279332	lake	-99
-5.308716	lakeshore	-99
-5.308716	lakeside	-99
-4.831594	lamb	-99
-4.831594	lambs	-99
-5.308716	lame	-99
-5.308716	lamenting	-99
-5.308716	lamp	-99
-3.764648	land	-99
-4.831594	landed	-99
-3.928505	landing	-99
-4.194773	lands	-99
-4.132625	landscape	-99
-5.308716	landslide	-99
-4.831594	lane	-99
-4.706656	language	-99
-4.530565	lap	-99
-5.308716	lapped	-99
-4.706656	laptop	-99
-4.831594	laptops	-99
-2.772157	large	-99
-4.267323	larger	-99
-5.308716	largest	-99
-5.308716	largley	-99
-5.308716	las	-99
-5.308716	lassie	-99
-5.007686	lasso	-99
-5.308716	lassos	-99
-3.877352	last	-99
-4.530565	lasting	-99
-3.846318	late	-99
-5.308716	lately	-99
-4.530565	later	-99
-4.831594	latest	-99
-5.308716	latte	-99
-5.308716	latter	-99
-5.308716	laucher	-99
-5.308716	lauded	-99
-4.007686	laugh	-99
-3.58444	laughing	-99
-3.966293	laughs	-99
-5.308716	laughter	-99
-5.007686	launch	-99
-5.308716	launched	-99
-5.007686	launches	-99
-5.007686	laundry	-99
-5.007686	lava	-99
-5.308716	lavender	-99
-5.308716	lavish	-99
-5.308716	law	-99
-3.655504	lawn	-99
-5.308716	laws	-99
-4.463618	lay	-99
-5.308716	layered	-99
-3.645958	laying	-99
-4.162588	lays	-99
-5.308716	layup	-99
-5.007686	lazily	-99
-4.609746	lazy	-99
-4.609746	lead	-99
-4.354474	leader	-99
-4.229535	leading	-99
-4.132625	leads	-99
-4.706656	leaf	-99
-5.308716	leaf-covered	-99
-5.308716	leafless	-99
-4.706656	leafy	-99
-4.706656	league	-99
-5.007686	leaguer	-99
-4.162588	lean	-99
-5.308716	leaned	-99
-3.928505	leaning	-99
-4.308716	leans	-99
-4.132625	leap	-99
-5.308716	leapfrog	-99
-3.61852	leaping	-99
-3.422225	leaps	-99
-4.194773	learn	-99
-4.530565	learned	-99
-4.053443	learning	-99
-4.530565	learns	-99
-3.777237	leash	-99
-4.609746	leashed	-99
-4.609746	leashes	-99
-3.986497	leather	-99
-4.405626	leave	-99
-3.627475	leaves	-99
-4.463618	leaving	-99
-5.007686	led	-99
-4.029963	ledge	-99
-4.706656	leech-infested	-99
-3.966293	left	-99
-5.308716	leftover	-99
-3.861558	leg	-99
-5.308716	legendary	-99
-4.609746	legged	-99
-5.308716	leggings	-99
-5.007686	legos	-99
-3.752414	legs	-99
-5.308716	legue	-99
-5.007686	leisure	-99
-5.007686	leisurely	-99
-5.308716	lemon	-99
-5.007686	lemonade	-99
-5.308716	lemons	-99
-5.308716	leopard	-99
-5.308716	leopards	-99
-5.308716	leoperd	-99
-5.007686	leotard	-99
-5.308716	leotards	-99
-4.706656	leprechaun	-99
-5.007686	leprechauns	-99
-5.308716	lepruchaun	-99
-5.308716	less	-99
-5.308716	lesson	-99
-4.831594	lessons	-99
-4.308716	let	-99
-4.831594	lets	-99
-5.007686	letter	-99
-5.308716	letters	-99
-5.007686	letting	-99
-5.308716	level	-99
-5.308716	levitate	-99
-5.308716	levitating	-99
-5.308716	lewis	-99
-4.706656	liberty	-99
-5.007686	library	-99
-5.308716	license	-99
-5.308716	lices	-99
-4.530565	lick	-99
-5.308716	licked	-99
-4.162588	licking	-99
-4.530565	licks	-99
-5.007686	licorice	-99
-5.308716	lids	-99
-5.007686	lie	-99
-4.053443	lies	-99
-2.861558	life	-99
-5.007686	lifeguard	-99
-5.308716	lifejacket	-99
-4.609746	lifelong	-99
-5.308716	lifer	-99
-4.267323	lifetime	-99
-5.308716	lifevest	-99
-5.308716	lifevests	-99
-4.530565	lift	-99
-4.831594	lifting	-99
-4.609746	lifts	-99
-3.817354	light	-99
-5.308716	light-colored	-99
-5.308716	lighter	-99
-5.007686	lighthouse	-99
-4.405626	lighting	-99
-5.308716	lightning	-99
-4.530565	lights	-99
-5.308716	lightsaber	-99
-2.58526	like	-99
-4.267323	likes	-99
-5.308716	liking	-99
-5.308716	lillypad	-99
-5.308716	lilypads	-99
-5.308716	limb	-99
-5.007686	limbs	-99
-5.308716	limo	-99
-4.831594	limousine	-99
-3.291682	line	-99
-4.104596	lined	-99
-5.007686	lines	-99
-5.007686	lining	-99
-4.831594	link	-99
-5.308716	linked	-99
-5.308716	lint	-99
-4.405626	lion	-99
-4.831594	lions	-99
-4.463618	lips	-99
-5.007686	lipstick	-99
-5.007686	liquid	-99
-5.308716	list	-99
-4.831594	listen	-99
-3.966293	listening	-99
-4.609746	listens	-99
-4.267323	lit	-99
-5.007686	litlle	-99
-4.831594	litter	-99
-5.308716	littered	-99
-2.566777	little	-99
-4.162588	live	-99
-5.007686	lively	-99
-5.308716	liven	-99
-4.104596	lives	-99
-5.308716	livestock	-99
-3.627475	living	-99
-5.308716	livings	-99
-3.877352	lizard	-99
-4.831594	lizards	-99
-5.007686	llama	-99
-5.308716	load	-99
-5.308716	loaded	-99
-5.308716	loaders	-99
-4.831594	loading	-99
-5.308716	loaves	-99
-5.007686	lobby	-99
-5.308716	lobster	-99
-5.308716	lobsters	-99
-4.053443	local	-99
-5.007686	locals	-99
-5.308716	locate	-99
-5.308716	located	-99
-4.831594	location	-99
-5.007686	loch	-99
-5.308716	lochness	-99
-5.308716	lock	-99
-5.308716	locked	-99
-5.007686	locker	-99
-5.007686	lockers	-99
-5.308716	locking	-99
-5.308716	locks	-99
-5.308716	locomotives	-99
-5.308716	lodge	-99
-3.910776	log	-99
-5.007686	logo	-99
-5.308716	logos	-99
-4.831594	logs	-99
-5.308716	loitering	-99
-4.831594	lollipop	-99
-5.007686	lollipops	-99
-5.007686	lolly	-99
-5.308716	lollygagging	-99
-3.986497	lone	-99
-4.267323	lonely	-99
-5.308716	lonesomely	-99
-3.308716	long	-99
-4.831594	long-haired	-99
-5.007686	long-necked	-99
-5.308716	long-standing	-99
-5.308716	longboard	-99
-5.308716	longeared	-99
-5.308716	longer	-99
-5.308716	longest	-99
-5.308716	longhaired	-99
-4.831594	longing	-99
-4.831594	longingly	-99
-5.007686	longs	-99
-5.308716	longtime	-99
-3.271289	look	-99
-5.308716	looke	-99
-5.007686	looked	-99
-5.308716	looker	-99
-5.308716	lookin	-99
-2.597753	looking	-99
-3.018681	looks	-99
-5.308716	looming	-99
-5.308716	loop-the-loop	-99
-4.706656	loose	-99
-5.007686	loosing	-99
-5.007686	lose	-99
-4.609746	loses	-99
-4.229535	losing	-99
-5.007686	loss	-99
-3.695932	lost	-99
-5.308716	lost..	-99
-3.764648	lot	-99
-4.463618	lots	-99
-5.308716	lottery	-99
-5.007686	loud	-99
-4.609746	loudly	-99
-5.007686	louis	-99
-5.308716	loungbar	-99
-4.609746	lounge	-99
-5.308716	lounging	-99
-4.831594	lovable	-99
-2.679306	love	-99
-5.308716	love-life	-99
-4.007686	loved	-99
-3.966293	lovely	-99
-2.768386	lover	-99
-5.308716	lover/toward	-99
-3.552841	lovers	-99
-3.655504	loves	-99
-5.308716	lovesick	-99
-3.251811	loving	-99
-3.790202	lovingly	-99
-4.132625	low	-99
-4.831594	lower	-99
-5.308716	lowered	-99
-3.946988	lows	-99
-4.706656	loyal	-99
-5.007686	luck	-99
-4.831594	lucky	-99
-4.831594	luggage	-99
-5.308716	lullabies	-99
-5.308716	lullaby	-99
-5.308716	lumbago	-99
-5.308716	luminous	-99
-5.308716	lump	-99
-4.267323	lunch	-99
-5.308716	lunchbox	-99
-5.007686	lunges	-99
-4.405626	lure	-99
-5.308716	lurk	-99
-5.308716	luscious	-99
-5.007686	lush	-99
-5.308716	lusty	-99
-3.910776	lying	-99
-5.308716	lyrics	-99
-5.308716	macciato	-99
-5.308716	mach	-99
-4.405626	machine	-99
-5.007686	machines	-99
-5.308716	macintosh	-99
-5.308716	macy	-99
-4.530565	mad	-99
-3.893743	made	-99
-4.831594	madly	-99
-5.308716	madman	-99
-5.308716	maes	-99
-5.308716	maffler	-99
-4.831594	magazine	-99
-4.706656	magazines	-99
-5.308716	magenta	-99
-3.803566	magic	-99
-5.308716	magical	-99
-5.007686	magician	-99
-5.308716	magizine	-99
-5.308716	magnonismly	-99
-5.308716	maid	-99
-5.308716	mail	-99
-5.308716	mailman	-99
-5.308716	main	-99
-5.308716	maintain	-99
-5.308716	maintaining	-99
-4.530565	majestic	-99
-5.007686	majestically	-99
-5.308716	major	-99
-3.416621	make	-99
-4.706656	make-up	-99
-5.308716	maker	-99
-5.308716	makers	-99
-3.685467	makes	-99
-5.308716	makeshift	-99
-4.609746	makeup	-99
-3.326445	making	-99
-3.752414	male	-99
-4.831594	males	-99
-4.308716	mall	-99
-5.308716	mama	-99
-4.831594	mambo	-99
-1.954607	man	-99
-5.308716	manager	-99
-5.308716	mand	-99
-5.308716	mandolin	-99
-5.308716	maneuver	-99
-5.308716	maneuvering	-99
-5.007686	maneuvers	-99
-5.308716	manhood	-99
-5.308716	maniac	-99
-5.007686	manicured	-99
-5.308716	manis	-99
-4.831594	manly	-99
-5.308716	mannequins	-99
-5.007686	manner	-99
-5.007686	mans	-99
-5.007686	mansion	-99
-5.308716	mantle	-99
-5.308716	manuals	-99
-5.308716	manure	-99
-3.495803	many	-99
-5.007686	maps	-99
-5.308716	maradona	-99
-4.530565	marathon	-99
-5.308716	marble	-99
-5.308716	marbled	-99
-5.308716	marcarena	-99
-5.007686	march	-99
-4.831594	marches	-99
-4.609746	marching	-99
